{"learner":{"attributes":{"scikit_learn":"{\"_estimator_type\": \"regressor\"}"},"feature_names":["day_of_week","month","lag_1","lag_7","lag_30"],"feature_types":["int","int","float","float","float"],"gradient_booster":{"model":{"cats":{"enc":[],"feature_segments":[],"sorted_idx":[]},"gbtree_model_param":{"num_parallel_tree":"1","num_trees":"100"},"iteration_indptr":[0,1,2,3,4,5,6,7,8,9,10,11,12,13,14,15,16,17,18,19,20,21,22,23,24,25,26,27,28,29,30,31,32,33,34,35,36,37,38,39,40,41,42,43,44,45,46,47,48,49,50,51,52,53,54,55,56,57,58,59,60,61,62,63,64,65,66,67,68,69,70,71,72,73,74,75,76,77,78,79,80,81,82,83,84,85,86,87,88,89,90,91,92,93,94,95,96,97,98,99,100],"tree_info":[0,0,0,0,0,0,0,0,0,0,0,0,0,0,0,0,0,0,0,0,0,0,0,0,0,0,0,0,0,0,0,0,0,0,0,0,0,0,0,0,0,0,0,0,0,0,0,0,0,0,0,0,0,0,0,0,0,0,0,0,0,0,0,0,0,0,0,0,0,0,0,0,0,0,0,0,0,0,0,0,0,0,0,0,0,0,0,0,0,0,0,0,0,0,0,0,0,0,0,0],"trees":[{"base_weights":[-5.210242E-6,-2.6695066E1,1.2107753E2,-6.423996E1,3.3301053E0,7.781775E1,2.021412E2,-9.0070305E1,-4.9068718E1,-1.2655555E1,2.2161386E1,6.6284256E1,1.14914154E2,1.7453313E2,2.3717694E2,-9.747855E1,-7.5058525E1,-5.78837E1,-3.8030254E1,-2.2032785E1,-2.894088E0,1.238874E1,3.5969975E1,5.7133038E1,8.1066635E1,1.00515335E2,1.3413062E2,1.8502348E2,1.3466068E2,2.2490909E2,2.6759906E2,-1.0217874E1,-9.101741E0,-8.055134E0,-6.6971908E0,-6.4050217E0,-5.0904665E0,-4.760093E0,-3.3479416E0,-2.9131982E0,-1.665E0,-6.856927E-1,7.3994786E-1,7.756484E-1,2.1320817E0,3.1085582E0,4.895156E0,4.711971E0,6.5764465E0,7.6065383E0,9.281627E0,9.369613E0,1.1579733E1,1.1607235E1,1.4514481E1,1.7236765E1,1.985311E1,1.1900756E1,1.4127162E1,2.0902376E1,2.362351E1,2.4627121E1,2.7553177E1],"categories":[],"categories_nodes":[],"categories_segments":[],"categories_sizes":[],"default_left":[0,0,0,0,0,0,0,0,0,0,0,0,0,0,0,0,0,0,0,0,0,0,0,0,0,0,0,0,0,0,0,0,0,0,0,0,0,0,0,0,0,0,0,0,0,0,0,0,0,0,0,0,0,0,0,0,0,0,0,0,0,0,0],"id":0,"left_children":[1,3,5,7,9,11,13,15,17,19,21,23,25,27,29,31,33,35,37,39,41,43,45,47,49,51,53,55,57,59,61,-1,-1,-1,-1,-1,-1,-1,-1,-1,-1,-1,-1,-1,-1,-1,-1,-1,-1,-1,-1,-1,-1,-1,-1,-1,-1,-1,-1,-1,-1,-1,-1],"loss_changes":[2.2051818E8,6.301695E7,4.320552E7,9.72984E6,9.350889E6,3.431452E6,4.106256E6,1.014712E6,1.5207E6,1.5378248E6,1.9241605E6,8.25156E5,5.1362E5,9.79792E5,6.4408E5,1.77464E5,1.29682E5,3.71156E5,3.01198E5,3.26966E5,3.3588922E5,3.4544562E5,3.73215E5,3.24641E5,1.3062E5,1.03054E5,1.44855E5,2.90412E5,3.5342E4,1.93688E5,2.2996E4,0E0,0E0,0E0,0E0,0E0,0E0,0E0,0E0,0E0,0E0,0E0,0E0,0E0,0E0,0E0,0E0,0E0,0E0,0E0,0E0,0E0,0E0,0E0,0E0,0E0,0E0,0E0,0E0,0E0,0E0,0E0,0E0],"parents":[2147483647,0,0,1,1,2,2,3,3,4,4,5,5,6,6,7,7,8,8,9,9,10,10,11,11,12,12,13,13,14,14,15,15,16,16,17,17,18,18,19,19,20,20,21,21,22,22,23,23,24,24,25,25,26,26,27,27,28,28,29,29,30,30],"right_children":[2,4,6,8,10,12,14,16,18,20,22,24,26,28,30,32,34,36,38,40,42,44,46,48,50,52,54,56,58,60,62,-1,-1,-1,-1,-1,-1,-1,-1,-1,-1,-1,-1,-1,-1,-1,-1,-1,-1,-1,-1,-1,-1,-1,-1,-1,-1,-1,-1,-1,-1,-1,-1],"split_conditions":[2.2E2,1.39E2,3.12E2,9.6E1,1.75E2,2.68E2,3.8E2,8.5E1,1.24E2,1.58E2,1.96E2,2.46E2,2.83E2,7E0,4.32E2,7.4E1,1E2,1.13E2,1.21E2,1.42E2,1.8E2,1.93E2,2.21E2,2.24E2,2.68E2,2.97E2,2.97E2,3.58E2,2.9E2,3.89E2,4.18E2,-1.0217874E1,-9.101741E0,-8.055134E0,-6.6971908E0,-6.4050217E0,-5.0904665E0,-4.760093E0,-3.3479416E0,-2.9131982E0,-1.665E0,-6.856927E-1,7.3994786E-1,7.756484E-1,2.1320817E0,3.1085582E0,4.895156E0,4.711971E0,6.5764465E0,7.6065383E0,9.281627E0,9.369613E0,1.1579733E1,1.1607235E1,1.4514481E1,1.7236765E1,1.985311E1,1.1900756E1,1.4127162E1,2.0902376E1,2.362351E1,2.4627121E1,2.7553177E1],"split_indices":[2,2,2,3,2,3,2,2,3,3,3,2,2,1,2,3,2,2,2,3,3,2,3,3,2,3,3,3,3,3,3,0,0,0,0,0,0,0,0,0,0,0,0,0,0,0,0,0,0,0,0,0,0,0,0,0,0,0,0,0,0,0,0],"split_type":[0,0,0,0,0,0,0,0,0,0,0,0,0,0,0,0,0,0,0,0,0,0,0,0,0,0,0,0,0,0,0,0,0,0,0,0,0,0,0,0,0,0,0,0,0,0,0,0,0,0,0,0,0,0,0,0,0,0,0,0,0,0,0],"sum_hessian":[6.8224E4,5.59E4,1.2324E4,2.4839E4,3.1061E4,8.037E3,4.287E3,9.189E3,1.565E4,1.68E4,1.4261E4,6.133E3,1.904E3,2.401E3,1.886E3,6.149E3,3.04E3,8.699E3,6.951E3,8.568E3,8.232E3,8.352E3,5.909E3,3.791E3,2.342E3,1.092E3,8.12E2,1.898E3,5.03E2,1.35E3,5.36E2,3.551E3,2.598E3,1.805E3,1.235E3,4.614E3,4.085E3,2.237E3,4.714E3,3.693E3,4.875E3,5.944E3,2.288E3,5.501E3,2.851E3,4.296E3,1.613E3,1.758E3,2.033E3,1.648E3,6.94E2,7.6E2,3.32E2,3.12E2,5E2,9.87E2,9.11E2,1.55E2,3.48E2,5.7E2,7.8E2,1.54E2,3.82E2],"tree_param":{"num_deleted":"0","num_feature":"5","num_nodes":"63","size_leaf_vector":"1"}},{"base_weights":[2.7491297E-3,-2.5880424E1,1.0123629E2,-6.000815E1,-5.7557315E-1,6.35784E1,1.7879422E2,-8.275144E1,-4.6929382E1,-1.3781797E1,1.6637602E1,5.074637E1,8.827131E1,1.4716548E2,2.060036E2,-8.9361E1,-7.160708E1,-5.435702E1,-3.7275757E1,-2.2477917E1,-3.7028635E0,8.883375E0,2.706407E1,4.3231865E1,6.302782E1,8.05193E1,1.1690023E2,1.5954828E2,1.1802595E2,1.919183E2,2.3356226E2,-9.32129E0,-8.435138E0,-7.609092E0,-6.2723956E0,-5.9005013E0,-4.8313994E0,-4.055171E0,-2.7634747E0,-3.0902252E0,-1.7964649E0,-8.117116E-1,2.6273903E-1,4.9921966E-1,1.6992778E0,2.2145512E0,3.8195462E0,3.521412E0,5.068488E0,5.9320908E0,7.5065093E0,7.436126E0,9.402718E0,1.4182223E1,1.0685531E1,1.4785309E1,1.6820967E1,9.909057E0,1.2246164E1,1.7750906E1,2.0328974E1,2.2062489E1,2.4746733E1],"categories":[],"categories_nodes":[],"categories_segments":[],"categories_sizes":[],"default_left":[0,0,0,0,0,0,0,0,0,0,0,0,0,0,0,0,0,0,0,0,0,0,0,0,0,0,0,0,0,0,0,0,0,0,0,0,0,0,0,0,0,0,0,0,0,0,0,0,0,0,0,0,0,0,0,0,0,0,0,0,0,0,0],"id":1,"left_children":[1,3,5,7,9,11,13,15,17,19,21,23,25,27,29,31,33,35,37,39,41,43,45,47,49,51,53,55,57,59,61,-1,-1,-1,-1,-1,-1,-1,-1,-1,-1,-1,-1,-1,-1,-1,-1,-1,-1,-1,-1,-1,-1,-1,-1,-1,-1,-1,-1,-1,-1,-1,-1],"loss_changes":[1.7876886E8,4.6922644E7,4.056256E7,6.877424E6,7.092873E6,2.959116E6,3.876784E6,6.15652E5,1.0513E6,1.547423E6,1.0949425E6,5.65498E5,7.00102E5,7.39992E5,9.01544E5,9.4356E4,1.20653E5,2.3028E5,2.00729E5,3.598105E5,2.2856989E5,2.450985E5,3.154475E5,2.26664E5,9.9738E4,2.02544E5,1.54826E5,1.2434E5,4.0864E4,2.29196E5,9.2912E4,0E0,0E0,0E0,0E0,0E0,0E0,0E0,0E0,0E0,0E0,0E0,0E0,0E0,0E0,0E0,0E0,0E0,0E0,0E0,0E0,0E0,0E0,0E0,0E0,0E0,0E0,0E0,0E0,0E0,0E0,0E0,0E0],"parents":[2147483647,0,0,1,1,2,2,3,3,4,4,5,5,6,6,7,7,8,8,9,9,10,10,11,11,12,12,13,13,14,14,15,15,16,16,17,17,18,18,19,19,20,20,21,21,22,22,23,23,24,24,25,25,26,26,27,27,28,28,29,29,30,30],"right_children":[2,4,6,8,10,12,14,16,18,20,22,24,26,28,30,32,34,36,38,40,42,44,46,48,50,52,54,56,58,60,62,-1,-1,-1,-1,-1,-1,-1,-1,-1,-1,-1,-1,-1,-1,-1,-1,-1,-1,-1,-1,-1,-1,-1,-1,-1,-1,-1,-1,-1,-1,-1,-1],"split_conditions":[2.13E2,1.35E2,3.06E2,9.3E1,1.73E2,2.5E2,3.64E2,8.1E1,1.21E2,1.58E2,1.9E2,2.36E2,2.97E2,7E0,4.18E2,7.2E1,9.7E1,1.13E2,1.43E2,1.39E2,1.73E2,1.92E2,2.1E2,2.16E2,2.61E2,2.68E2,7E0,3.43E2,2.73E2,3.8E2,4.32E2,-9.32129E0,-8.435138E0,-7.609092E0,-6.2723956E0,-5.9005013E0,-4.8313994E0,-4.055171E0,-2.7634747E0,-3.0902252E0,-1.7964649E0,-8.117116E-1,2.6273903E-1,4.9921966E-1,1.6992778E0,2.2145512E0,3.8195462E0,3.521412E0,5.068488E0,5.9320908E0,7.5065093E0,7.436126E0,9.402718E0,1.4182223E1,1.0685531E1,1.4785309E1,1.6820967E1,9.909057E0,1.2246164E1,1.7750906E1,2.0328974E1,2.2062489E1,2.4746733E1],"split_indices":[2,2,2,2,3,3,2,3,3,2,2,2,3,1,2,2,3,2,3,3,2,3,3,3,2,2,1,3,3,3,3,0,0,0,0,0,0,0,0,0,0,0,0,0,0,0,0,0,0,0,0,0,0,0,0,0,0,0,0,0,0,0,0],"split_type":[0,0,0,0,0,0,0,0,0,0,0,0,0,0,0,0,0,0,0,0,0,0,0,0,0,0,0,0,0,0,0,0,0,0,0,0,0,0,0,0,0,0,0,0,0,0,0,0,0,0,0,0,0,0,0,0,0,0,0,0,0,0,0],"sum_hessian":[6.8224E4,5.4333E4,1.3891E4,2.3133E4,3.12E4,9.352E3,4.539E3,8.444E3,1.4689E4,1.7655E4,1.3545E4,6.156E3,3.196E3,2.102E3,2.437E3,5.296E3,3.148E3,8.299E3,6.39E3,9.477E3,8.178E3,7.769E3,5.776E3,3.822E3,2.334E3,2.518E3,6.78E2,1.472E3,6.3E2,1.618E3,8.19E2,2.984E3,2.312E3,2.087E3,1.061E3,4.686E3,3.613E3,4.767E3,1.623E3,3.304E3,6.173E3,4.818E3,3.36E3,5.251E3,2.518E3,4.008E3,1.768E3,1.844E3,1.978E3,1.789E3,5.45E2,1.734E3,7.84E2,1.91E2,4.87E2,6.34E2,8.38E2,1.24E2,5.06E2,7.21E2,8.97E2,4.33E2,3.86E2],"tree_param":{"num_deleted":"0","num_feature":"5","num_nodes":"63","size_leaf_vector":"1"}},{"base_weights":[4.7596944E-3,-2.0440437E1,1.0394819E2,-4.9769302E1,6.0694413E0,6.6856544E1,1.6384322E2,-7.213814E1,-3.720106E1,-5.4962745E0,2.3446018E1,5.6873024E1,9.368653E1,1.413159E2,1.9243185E2,-7.900319E1,-5.9943913E1,-4.4163544E1,-2.6340143E1,-1.3269805E1,3.006551E0,1.5205162E1,3.483158E1,4.5744823E1,6.3763046E1,8.011258E1,1.0710322E2,1.4976814E2,1.0918868E2,1.7963232E2,2.1238242E2,-8.255247E0,-7.278999E0,-6.4133606E0,-5.3262267E0,-4.8551416E0,-3.7121034E0,-3.3200142E0,-2.255546E0,-1.7240345E0,-6.7769355E-1,-1.3582011E-2,1.0874714E0,1.1350881E0,2.1585305E0,3.1485572E0,4.9055066E0,3.6894872E0,4.947791E0,5.7007117E0,7.0769386E0,7.7272925E0,9.810744E0,9.333487E0,1.1642766E1,1.3933795E1,1.609033E1,9.6127405E0,1.1471411E1,1.6054377E1,1.8563637E1,1.9925531E1,2.2382397E1],"categories":[],"categories_nodes":[],"categories_segments":[],"categories_sizes":[],"default_left":[0,0,0,0,0,0,0,0,0,0,0,0,0,0,0,0,0,0,0,0,0,0,0,0,0,0,0,0,0,0,0,0,0,0,0,0,0,0,0,0,0,0,0,0,0,0,0,0,0,0,0,0,0,0,0,0,0,0,0,0,0,0,0],"id":2,"left_children":[1,3,5,7,9,11,13,15,17,19,21,23,25,27,29,31,33,35,37,39,41,43,45,47,49,51,53,55,57,59,61,-1,-1,-1,-1,-1,-1,-1,-1,-1,-1,-1,-1,-1,-1,-1,-1,-1,-1,-1,-1,-1,-1,-1,-1,-1,-1,-1,-1,-1,-1,-1,-1],"loss_changes":[1.4499006E8,4.432739E7,2.490212E7,7.606848E6,6.018453E6,1.85012E6,2.734392E6,8.10304E5,1.309464E6,1.1884635E6,1.122295E6,3.84361E5,3.33253E5,6.35904E5,4.43704E5,1.31288E5,9.487E4,3.2452E5,1.75098E5,2.4203638E5,2.1233706E5,1.70514E5,2.375575E5,6.210225E4,1.43506E5,4.0299E4,1.09942E5,1.98132E5,2.53465E4,1.02688E5,6.5346E4,0E0,0E0,0E0,0E0,0E0,0E0,0E0,0E0,0E0,0E0,0E0,0E0,0E0,0E0,0E0,0E0,0E0,0E0,0E0,0E0,0E0,0E0,0E0,0E0,0E0,0E0,0E0,0E0,0E0,0E0,0E0,0E0],"parents":[2147483647,0,0,1,1,2,2,3,3,4,4,5,5,6,6,7,7,8,8,9,9,10,10,11,11,12,12,13,13,14,14,15,15,16,16,17,17,18,18,19,19,20,20,21,21,22,22,23,23,24,24,25,25,26,26,27,27,28,28,29,29,30,30],"right_children":[2,4,6,8,10,12,14,16,18,20,22,24,26,28,30,32,34,36,38,40,42,44,46,48,50,52,54,56,58,60,62,-1,-1,-1,-1,-1,-1,-1,-1,-1,-1,-1,-1,-1,-1,-1,-1,-1,-1,-1,-1,-1,-1,-1,-1,-1,-1,-1,-1,-1,-1,-1,-1],"split_conditions":[2.26E2,1.44E2,3.12E2,9.8E1,1.83E2,2.68E2,3.8E2,8.5E1,1.3E2,1.64E2,2.03E2,2.3E2,2.78E2,7E0,4.18E2,7.6E1,1.02E2,1.21E2,1.28E2,1.61E2,1.86E2,1.99E2,2.34E2,2.09E2,2.5E2,3.35E2,2.97E2,3.58E2,2.9E2,3.64E2,4.32E2,-8.255247E0,-7.278999E0,-6.4133606E0,-5.3262267E0,-4.8551416E0,-3.7121034E0,-3.3200142E0,-2.255546E0,-1.7240345E0,-6.7769355E-1,-1.3582011E-2,1.0874714E0,1.1350881E0,2.1585305E0,3.1485572E0,4.9055066E0,3.6894872E0,4.947791E0,5.7007117E0,7.0769386E0,7.7272925E0,9.810744E0,9.333487E0,1.1642766E1,1.3933795E1,1.609033E1,9.6127405E0,1.1471411E1,1.6054377E1,1.8563637E1,1.9925531E1,2.2382397E1],"split_indices":[2,2,2,2,2,3,2,3,3,3,3,3,2,1,3,2,3,2,2,2,3,2,3,3,2,4,3,3,3,3,2,0,0,0,0,0,0,0,0,0,0,0,0,0,0,0,0,0,0,0,0,0,0,0,0,0,0,0,0,0,0,0,0],"split_type":[0,0,0,0,0,0,0,0,0,0,0,0,0,0,0,0,0,0,0,0,0,0,0,0,0,0,0,0,0,0,0,0,0,0,0,0,0,0,0,0,0,0,0,0,0,0,0,0,0,0,0,0,0,0,0,0,0,0,0,0,0,0,0],"sum_hessian":[6.8224E4,5.7011E4,1.1213E4,2.7066E4,2.9945E4,6.926E3,4.287E3,9.735E3,1.7331E4,1.7979E4,1.1966E4,5.05E3,1.876E3,2.401E3,1.886E3,6.225E3,3.51E3,1.0559E4,6.772E3,9.392E3,8.587E3,6.943E3,5.023E3,1.934E3,3.116E3,9.36E2,9.4E2,1.898E3,5.03E2,1.155E3,7.31E2,3.954E3,2.271E3,2.152E3,1.358E3,6.502E3,4.057E3,2.405E3,4.367E3,5.827E3,3.565E3,6.137E3,2.45E3,4.33E3,2.613E3,4.069E3,9.54E2,5.77E2,1.357E3,1.591E3,1.525E3,8.13E2,1.23E2,3.84E2,5.56E2,9.87E2,9.11E2,1.55E2,3.48E2,2.83E2,8.72E2,3.49E2,3.82E2],"tree_param":{"num_deleted":"0","num_feature":"5","num_nodes":"63","size_leaf_vector":"1"}},{"base_weights":[6.5775844E-3,-2.1419271E1,8.049804E1,-4.949226E1,-1.5246571E0,5.0659267E1,1.4491628E2,-6.731257E1,-3.8718483E1,-1.4024186E1,1.0729294E1,4.042304E1,7.16351E1,1.19082405E2,1.6714093E2,-7.252219E1,-5.8423252E1,-4.5282658E1,-3.229696E1,-2.1798923E1,-7.5332365E0,4.1416287E0,1.991436E1,3.1521261E1,4.767111E1,6.533306E1,9.5067116E1,1.2905435E2,9.561528E1,1.555277E2,1.8986615E2,-7.6828E0,-6.9081264E0,-6.205214E0,-5.2655725E0,-5.0385637E0,-4.139036E0,-3.5703175E0,-2.5780594E0,-2.8715246E0,-1.9138907E0,-1.0014094E0,-2.9384276E-2,-4.0939638E-1,6.776851E-1,1.6393347E0,2.8456163E0,2.841731E0,4.0798907E0,4.250717E0,5.5516734E0,5.9545755E0,7.5145617E0,1.1664065E1,8.638435E0,1.1948252E1,1.3614501E1,8.0393505E0,9.917959E0,1.3682363E1,1.6137173E1,1.8140606E1,2.0570774E1],"categories":[],"categories_nodes":[],"categories_segments":[],"categories_sizes":[],"default_left":[0,0,0,0,0,0,0,0,0,0,0,0,0,0,0,0,0,0,0,0,0,0,0,0,0,0,0,0,0,0,0,0,0,0,0,0,0,0,0,0,0,0,0,0,0,0,0,0,0,0,0,0,0,0,0,0,0,0,0,0,0,0,0],"id":3,"left_children":[1,3,5,7,9,11,13,15,17,19,21,23,25,27,29,31,33,35,37,39,41,43,45,47,49,51,53,55,57,59,61,-1,-1,-1,-1,-1,-1,-1,-1,-1,-1,-1,-1,-1,-1,-1,-1,-1,-1,-1,-1,-1,-1,-1,-1,-1,-1,-1,-1,-1,-1,-1,-1],"loss_changes":[1.1766241E8,3.0093646E7,2.7562208E7,4.288032E6,4.830476E6,2.102156E6,2.586736E6,3.85644E5,5.85716E5,7.8770175E5,9.635095E5,4.23753E5,4.68398E5,4.79792E5,6.13888E5,7.3278E4,6.195E4,1.34687E5,1.55451E5,1.3012825E5,1.5283578E5,2.0131948E5,1.9956775E5,8.410975E4,1.44747E5,1.39541E5,1.171125E5,8.3704E4,2.62615E4,1.54888E5,7.2582E4,0E0,0E0,0E0,0E0,0E0,0E0,0E0,0E0,0E0,0E0,0E0,0E0,0E0,0E0,0E0,0E0,0E0,0E0,0E0,0E0,0E0,0E0,0E0,0E0,0E0,0E0,0E0,0E0,0E0,0E0,0E0,0E0],"parents":[2147483647,0,0,1,1,2,2,3,3,4,4,5,5,6,6,7,7,8,8,9,9,10,10,11,11,12,12,13,13,14,14,15,15,16,16,17,17,18,18,19,19,20,20,21,21,22,22,23,23,24,24,25,25,26,26,27,27,28,28,29,29,30,30],"right_children":[2,4,6,8,10,12,14,16,18,20,22,24,26,28,30,32,34,36,38,40,42,44,46,48,50,52,54,56,58,60,62,-1,-1,-1,-1,-1,-1,-1,-1,-1,-1,-1,-1,-1,-1,-1,-1,-1,-1,-1,-1,-1,-1,-1,-1,-1,-1,-1,-1,-1,-1,-1,-1],"split_conditions":[2.11E2,1.33E2,3.06E2,9.3E1,1.67E2,2.5E2,3.64E2,8.1E1,1.17E2,1.49E2,1.88E2,2.19E2,2.97E2,7E0,4.18E2,6.9E1,9.5E1,1.05E2,1.36E2,1.28E2,1.73E2,1.61E2,2.11E2,2.32E2,2.41E2,2.64E2,7E0,3.43E2,2.73E2,3.58E2,4.51E2,-7.6828E0,-6.9081264E0,-6.205214E0,-5.2655725E0,-5.0385637E0,-4.139036E0,-3.5703175E0,-2.5780594E0,-2.8715246E0,-1.9138907E0,-1.0014094E0,-2.9384276E-2,-4.0939638E-1,6.776851E-1,1.6393347E0,2.8456163E0,2.841731E0,4.0798907E0,4.250717E0,5.5516734E0,5.9545755E0,7.5145617E0,1.1664065E1,8.638435E0,1.1948252E1,1.3614501E1,8.0393505E0,9.917959E0,1.3682363E1,1.6137173E1,1.8140606E1,2.0570774E1],"split_indices":[2,2,2,3,2,3,2,2,3,3,3,3,3,1,2,3,2,2,3,3,3,3,3,2,2,2,1,3,3,3,2,0,0,0,0,0,0,0,0,0,0,0,0,0,0,0,0,0,0,0,0,0,0,0,0,0,0,0,0,0,0,0,0],"split_type":[0,0,0,0,0,0,0,0,0,0,0,0,0,0,0,0,0,0,0,0,0,0,0,0,0,0,0,0,0,0,0,0,0,0,0,0,0,0,0,0,0,0,0,0,0,0,0,0,0,0,0,0,0,0,0,0,0,0,0,0,0,0,0],"sum_hessian":[6.8224E4,5.3882E4,1.4342E4,2.2347E4,3.1535E4,9.803E3,4.539E3,8.418E3,1.3929E4,1.5611E4,1.5924E4,6.59E3,3.213E3,2.102E3,2.437E3,5.303E3,3.115E3,6.885E3,7.044E3,7.102E3,8.509E3,9.274E3,6.65E3,2.96E3,3.63E3,2.535E3,6.78E2,1.472E3,6.3E2,1.618E3,8.19E2,2.346E3,2.957E3,1.906E3,1.209E3,2.974E3,3.911E3,4.623E3,2.421E3,1.97E3,5.132E3,6.337E3,2.172E3,2.248E3,7.026E3,4.711E3,1.939E3,2.221E3,7.39E2,2.193E3,1.437E3,1.599E3,9.36E2,1.91E2,4.87E2,6.34E2,8.38E2,1.24E2,5.06E2,3.91E2,1.227E3,5.42E2,2.77E2],"tree_param":{"num_deleted":"0","num_feature":"5","num_nodes":"63","size_leaf_vector":"1"}},{"base_weights":[7.6799886E-3,-1.8134075E1,7.7062E1,-4.3459633E1,6.6372263E-1,4.95979E1,1.3297917E2,-6.0518963E1,-3.39052E1,-1.0206334E1,1.3011055E1,4.194392E1,7.59095E1,1.1674337E2,1.5993253E2,-6.527272E1,-5.2474903E1,-3.9568565E1,-2.5586222E1,-1.8631357E1,-4.868382E0,7.314202E0,2.2707443E1,3.424939E1,5.127606E1,6.578133E1,8.719164E1,1.2880623E2,9.885335E1,1.4892232E2,1.7409373E2,-6.8127375E0,-6.1013613E0,-5.5078998E0,-4.529616E0,-4.3584285E0,-3.5619473E0,-3.047402E0,-2.258984E0,-2.1497533E0,-1.201772E0,-7.925395E-1,1.305186E-1,2.24574E-1,1.1045717E0,2.0249488E0,3.466536E0,2.420143E0,3.7099411E0,4.9637055E0,6.777845E0,6.174909E0,7.6980624E0,1.0698001E1,8.134579E0,1.2158789E1,1.3969866E1,9.119383E0,1.14479065E1,1.5088654E1,1.2103583E1,1.6738342E1,1.8707644E1],"categories":[],"categories_nodes":[],"categories_segments":[],"categories_sizes":[],"default_left":[0,0,0,0,0,0,0,0,0,0,0,0,0,0,0,0,0,0,0,0,0,0,0,0,0,0,0,0,0,0,0,0,0,0,0,0,0,0,0,0,0,0,0,0,0,0,0,0,0,0,0,0,0,0,0,0,0,0,0,0,0,0,0],"id":4,"left_children":[1,3,5,7,9,11,13,15,17,19,21,23,25,27,29,31,33,35,37,39,41,43,45,47,49,51,53,55,57,59,61,-1,-1,-1,-1,-1,-1,-1,-1,-1,-1,-1,-1,-1,-1,-1,-1,-1,-1,-1,-1,-1,-1,-1,-1,-1,-1,-1,-1,-1,-1,-1,-1],"loss_changes":[9.537316E7,2.6290228E7,1.9960768E7,3.832668E6,4.2545175E6,1.753124E6,1.855168E6,3.19504E5,7.096E5,7.580534E5,8.196345E5,4.83511E5,2.18687E5,5.6476E5,2.24628E5,6.0332E4,5.6243E4,1.40729E5,8.8826E4,1.23675E5,1.9479525E5,1.7681216E5,1.6071925E5,1.052595E5,7.9184E4,4.2166E4,9.8417E4,1.0842E5,1.1906E5,3.1636E4,2.9408E4,0E0,0E0,0E0,0E0,0E0,0E0,0E0,0E0,0E0,0E0,0E0,0E0,0E0,0E0,0E0,0E0,0E0,0E0,0E0,0E0,0E0,0E0,0E0,0E0,0E0,0E0,0E0,0E0,0E0,0E0,0E0,0E0],"parents":[2147483647,0,0,1,1,2,2,3,3,4,4,5,5,6,6,7,7,8,8,9,9,10,10,11,11,12,12,13,13,14,14,15,15,16,16,17,17,18,18,19,19,20,20,21,21,22,22,23,23,24,24,25,25,26,26,27,27,28,28,29,29,30,30],"right_children":[2,4,6,8,10,12,14,16,18,20,22,24,26,28,30,32,34,36,38,40,42,44,46,48,50,52,54,56,58,60,62,-1,-1,-1,-1,-1,-1,-1,-1,-1,-1,-1,-1,-1,-1,-1,-1,-1,-1,-1,-1,-1,-1,-1,-1,-1,-1,-1,-1,-1,-1,-1,-1],"split_conditions":[2.17E2,1.36E2,3.12E2,9.3E1,1.72E2,2.68E2,3.89E2,8.1E1,1.23E2,1.48E2,1.96E2,2.36E2,2.78E2,6E0,4.18E2,7.3E1,1.01E2,1.11E2,1.21E2,1.55E2,1.7E2,1.75E2,2.27E2,2.04E2,1.1E1,2.97E2,4E0,3.72E2,3.8E2,6E0,4.51E2,-6.8127375E0,-6.1013613E0,-5.5078998E0,-4.529616E0,-4.3584285E0,-3.5619473E0,-3.047402E0,-2.258984E0,-2.1497533E0,-1.201772E0,-7.925395E-1,1.305186E-1,2.24574E-1,1.1045717E0,2.0249488E0,3.466536E0,2.420143E0,3.7099411E0,4.9637055E0,6.777845E0,6.174909E0,7.6980624E0,1.0698001E1,8.134579E0,1.2158789E1,1.3969866E1,9.119383E0,1.14479065E1,1.5088654E1,1.2103583E1,1.6738342E1,1.8707644E1],"split_indices":[2,3,3,3,2,2,2,2,2,2,3,3,3,1,3,3,2,3,3,3,3,3,3,3,1,2,1,3,4,1,2,0,0,0,0,0,0,0,0,0,0,0,0,0,0,0,0,0,0,0,0,0,0,0,0,0,0,0,0,0,0,0,0],"split_type":[0,0,0,0,0,0,0,0,0,0,0,0,0,0,0,0,0,0,0,0,0,0,0,0,0,0,0,0,0,0,0,0,0,0,0,0,0,0,0,0,0,0,0,0,0,0,0,0,0,0,0,0,0,0,0,0,0,0,0,0,0,0,0],"sum_hessian":[6.8224E4,5.5223E4,1.3001E4,2.3526E4,3.1697E4,8.72E3,4.281E3,8.444E3,1.5082E4,1.6857E4,1.484E4,6.757E3,1.963E3,2.675E3,1.606E3,5.303E3,3.141E3,8.971E3,6.111E3,6.537E3,1.032E4,9.349E3,5.491E3,3.706E3,3.051E3,1.038E3,9.25E2,1.594E3,1.081E3,9.1E2,6.96E2,3.166E3,2.137E3,2.3E3,8.41E2,4.443E3,4.528E3,2.319E3,3.792E3,4.559E3,1.978E3,6.902E3,3.418E3,3.965E3,5.384E3,4.557E3,9.34E2,8.21E2,2.885E3,2.779E3,2.72E2,7.68E2,2.7E2,2.07E2,7.18E2,9.66E2,6.28E2,7.3E2,3.51E2,8.46E2,6.4E1,4.68E2,2.28E2],"tree_param":{"num_deleted":"0","num_feature":"5","num_nodes":"63","size_leaf_vector":"1"}},{"base_weights":[8.767418E-3,-1.7948633E1,6.324167E1,-4.051274E1,-2.0596163E0,3.878839E1,1.15177864E2,-5.5224983E1,-3.2139793E1,-1.3182479E1,6.562207E0,2.9916533E1,5.296142E1,9.4442314E1,1.358743E2,-5.9699417E1,-4.911349E1,-3.7971264E1,-2.7030704E1,-1.8390226E1,-7.753291E0,6.84308E-2,1.2595293E1,2.577977E1,3.817977E1,4.835051E1,6.979103E1,1.0869841E2,8.112344E1,1.2620653E2,1.5575038E2,-6.3407683E0,-5.729475E0,-5.1952157E0,-4.308479E0,-4.1014295E0,-3.3861282E0,-3.1554945E0,-2.3785758E0,-1.1969532E0,-2.029455E0,-8.928189E-1,1.037695E-1,-6.425995E-1,2.1972223E-1,9.989411E-1,2.0839903E0,1.9445635E0,2.9285834E0,3.4723065E0,4.4361134E0,4.122985E0,5.2580433E0,6.4350753E0,8.202998E0,1.0021838E1,1.1628835E1,7.210489E0,8.943228E0,1.2038049E1,1.391702E1,1.4319153E1,1.6182768E1],"categories":[],"categories_nodes":[],"categories_segments":[],"categories_sizes":[],"default_left":[0,0,0,0,0,0,0,0,0,0,0,0,0,0,0,0,0,0,0,0,0,0,0,0,0,0,0,0,0,0,0,0,0,0,0,0,0,0,0,0,0,0,0,0,0,0,0,0,0,0,0,0,0,0,0,0,0,0,0,0,0,0,0],"id":5,"left_children":[1,3,5,7,9,11,13,15,17,19,21,23,25,27,29,31,33,35,37,39,41,43,45,47,49,51,53,55,57,59,61,-1,-1,-1,-1,-1,-1,-1,-1,-1,-1,-1,-1,-1,-1,-1,-1,-1,-1,-1,-1,-1,-1,-1,-1,-1,-1,-1,-1,-1,-1,-1,-1],"loss_changes":[7.747052E7,1.9050314E7,1.9159984E7,2.702872E6,2.9903242E6,1.288645E6,2.059968E6,2.14792E5,4.15932E5,3.84834E5,6.881913E5,2.148135E5,3.03067E5,4.49922E5,4.44404E5,3.7314E4,5.54515E4,8.0319E4,1.088135E5,8.4723E4,6.887981E4,1.169898E5,1.954295E5,9.292575E4,4.341625E4,9.1294E4,5.111725E4,6.3265E4,8.7443E4,1.06354E5,3.6818E4,0E0,0E0,0E0,0E0,0E0,0E0,0E0,0E0,0E0,0E0,0E0,0E0,0E0,0E0,0E0,0E0,0E0,0E0,0E0,0E0,0E0,0E0,0E0,0E0,0E0,0E0,0E0,0E0,0E0,0E0,0E0,0E0],"parents":[2147483647,0,0,1,1,2,2,3,3,4,4,5,5,6,6,7,7,8,8,9,9,10,10,11,11,12,12,13,13,14,14,15,15,16,16,17,17,18,18,19,19,20,20,21,21,22,22,23,23,24,24,25,25,26,26,27,27,28,28,29,29,30,30],"right_children":[2,4,6,8,10,12,14,16,18,20,22,24,26,28,30,32,34,36,38,40,42,44,46,48,50,52,54,56,58,60,62,-1,-1,-1,-1,-1,-1,-1,-1,-1,-1,-1,-1,-1,-1,-1,-1,-1,-1,-1,-1,-1,-1,-1,-1,-1,-1,-1,-1,-1,-1,-1,-1],"split_conditions":[2.08E2,1.32E2,2.97E2,9.1E1,1.62E2,2.41E2,3.64E2,7.8E1,1.14E2,1.49E2,1.79E2,2.32E2,2.83E2,6E0,4.18E2,6.7E1,9.8E1,1.1E2,1.17E2,6E0,1.8E2,1.55E2,2.07E2,2.05E2,2.5E2,2.43E2,2.83E2,3.19E2,3.12E2,4.08E2,3.98E2,-6.3407683E0,-5.729475E0,-5.1952157E0,-4.308479E0,-4.1014295E0,-3.3861282E0,-3.1554945E0,-2.3785758E0,-1.1969532E0,-2.029455E0,-8.928189E-1,1.037695E-1,-6.425995E-1,2.1972223E-1,9.989411E-1,2.0839903E0,1.9445635E0,2.9285834E0,3.4723065E0,4.4361134E0,4.122985E0,5.2580433E0,6.4350753E0,8.202998E0,1.0021838E1,1.1628835E1,7.210489E0,8.943228E0,1.2038049E1,1.391702E1,1.4319153E1,1.6182768E1],"split_indices":[2,2,2,2,2,3,3,3,3,3,3,2,3,1,2,2,4,2,2,1,3,3,3,3,2,2,2,4,3,3,4,0,0,0,0,0,0,0,0,0,0,0,0,0,0,0,0,0,0,0,0,0,0,0,0,0,0,0,0,0,0,0,0],"split_type":[0,0,0,0,0,0,0,0,0,0,0,0,0,0,0,0,0,0,0,0,0,0,0,0,0,0,0,0,0,0,0,0,0,0,0,0,0,0,0,0,0,0,0,0,0,0,0,0,0,0,0,0,0,0,0,0,0,0,0,0,0,0,0],"sum_hessian":[6.8224E4,5.3135E4,1.5089E4,2.1955E4,3.118E4,1.026E4,4.829E3,7.961E3,1.3994E4,1.3615E4,1.7565E4,6.312E3,3.948E3,2.415E3,2.414E3,4.591E3,3.37E3,6.532E3,7.462E3,6.948E3,6.667E3,8.46E3,9.105E3,4.209E3,2.103E3,3.102E3,8.46E2,1.163E3,1.252E3,1.629E3,7.85E2,1.796E3,2.795E3,2.286E3,1.084E3,3.748E3,2.784E3,3.113E3,4.349E3,1.591E3,5.357E3,5.881E3,7.86E2,2.088E3,6.372E3,6.92E3,2.185E3,1.502E3,2.707E3,1.353E3,7.5E2,1.16E3,1.942E3,5.9E2,2.56E2,5.56E2,6.07E2,6.05E2,6.47E2,1.131E3,4.98E2,2.64E2,5.21E2],"tree_param":{"num_deleted":"0","num_feature":"5","num_nodes":"63","size_leaf_vector":"1"}},{"base_weights":[9.282343E-3,-1.4861225E1,6.1981556E1,-3.311595E1,2.2474809E0,3.99259E1,1.0785891E2,-4.7672348E1,-2.4732904E1,-5.279965E0,1.2227187E1,3.3565933E1,6.062303E1,9.4533104E1,1.297523E2,-5.2237465E1,-4.020251E1,-3.0511677E1,-1.9466993E1,-1.0912092E1,-1.3023236E0,8.202436E0,2.008495E1,2.6669264E1,4.02911E1,5.2103943E1,7.125937E1,1.03449615E2,8.00254E1,1.2278332E2,1.4565219E2,-5.582473E0,-4.946815E0,-4.3875513E0,-3.6815376E0,-3.4519196E0,-2.7927263E0,-2.3302798E0,-1.4906092E0,-1.4470673E0,-8.040039E-1,-5.6611764E-1,8.077937E-2,2.7190852E-1,1.0569457E0,1.4999827E0,2.300328E0,2.3250504E0,3.2727284E0,3.603668E0,4.6080875E0,4.8523974E0,6.2812214E0,8.265804E0,6.5305147E0,9.329388E0,1.09897585E1,7.3793955E0,9.330413E0,1.056241E1,1.2529682E1,1.4906333E1,1.3110595E1],"categories":[],"categories_nodes":[],"categories_segments":[],"categories_sizes":[],"default_left":[0,0,0,0,0,0,0,0,0,0,0,0,0,0,0,0,0,0,0,0,0,0,0,0,0,0,0,0,0,0,0,0,0,0,0,0,0,0,0,0,0,0,0,0,0,0,0,0,0,0,0,0,0,0,0,0,0,0,0,0,0,0,0],"id":6,"left_children":[1,3,5,7,9,11,13,15,17,19,21,23,25,27,29,31,33,35,37,39,41,43,45,47,49,51,53,55,57,59,61,-1,-1,-1,-1,-1,-1,-1,-1,-1,-1,-1,-1,-1,-1,-1,-1,-1,-1,-1,-1,-1,-1,-1,-1,-1,-1,-1,-1,-1,-1,-1,-1],"loss_changes":[6.2874296E7,1.7184568E7,1.335522E7,3.247182E6,2.1338212E6,1.171869E6,1.23816E6,3.29596E5,5.13499E5,3.6272847E5,3.86078E5,3.154315E5,1.86119E5,3.36846E5,1.61514E5,5.7183E4,4.43415E4,8.2442E4,1.5434075E5,6.8380875E4,8.729985E4,1.0481719E5,6.1033375E4,6.907625E4,8.3394E4,4.1689E4,5.76535E4,9.7732E4,7.75155E4,3.5588E4,4.67E3,0E0,0E0,0E0,0E0,0E0,0E0,0E0,0E0,0E0,0E0,0E0,0E0,0E0,0E0,0E0,0E0,0E0,0E0,0E0,0E0,0E0,0E0,0E0,0E0,0E0,0E0,0E0,0E0,0E0,0E0,0E0,0E0],"parents":[2147483647,0,0,1,1,2,2,3,3,4,4,5,5,6,6,7,7,8,8,9,9,10,10,11,11,12,12,13,13,14,14,15,15,16,16,17,17,18,18,19,19,20,20,21,21,22,22,23,23,24,24,25,25,26,26,27,27,28,28,29,29,30,30],"right_children":[2,4,6,8,10,12,14,16,18,20,22,24,26,28,30,32,34,36,38,40,42,44,46,48,50,52,54,56,58,60,62,-1,-1,-1,-1,-1,-1,-1,-1,-1,-1,-1,-1,-1,-1,-1,-1,-1,-1,-1,-1,-1,-1,-1,-1,-1,-1,-1,-1,-1,-1,-1,-1],"split_conditions":[2.16E2,1.43E2,3.12E2,9.8E1,1.78E2,2.64E2,3.89E2,8.4E1,1.21E2,1.56E2,2.03E2,2.3E2,2.83E2,6E0,4.32E2,7E1,9.5E1,1.05E2,1.36E2,1.53E2,1.59E2,1.75E2,1.95E2,2.34E2,2.5E2,1.1E1,7E0,3.26E2,3.8E2,3.58E2,5E0,-5.582473E0,-4.946815E0,-4.3875513E0,-3.6815376E0,-3.4519196E0,-2.7927263E0,-2.3302798E0,-1.4906092E0,-1.4470673E0,-8.040039E-1,-5.6611764E-1,8.077937E-2,2.7190852E-1,1.0569457E0,1.4999827E0,2.300328E0,2.3250504E0,3.2727284E0,3.603668E0,4.6080875E0,4.8523974E0,6.2812214E0,8.265804E0,6.5305147E0,9.329388E0,1.09897585E1,7.3793955E0,9.330413E0,1.056241E1,1.2529682E1,1.4906333E1,1.3110595E1],"split_indices":[3,2,2,3,2,2,2,2,2,3,2,2,3,1,3,3,4,2,3,2,2,3,3,3,3,1,1,4,4,3,1,0,0,0,0,0,0,0,0,0,0,0,0,0,0,0,0,0,0,0,0,0,0,0,0,0,0,0,0,0,0,0,0],"split_type":[0,0,0,0,0,0,0,0,0,0,0,0,0,0,0,0,0,0,0,0,0,0,0,0,0,0,0,0,0,0,0,0,0,0,0,0,0,0,0,0,0,0,0,0,0,0,0,0,0,0,0,0,0,0,0,0,0,0,0,0,0,0,0],"sum_hessian":[6.8224E4,5.5022E4,1.3202E4,2.6619E4,2.8403E4,8.917E3,4.285E3,9.726E3,1.6893E4,1.6191E4,1.2212E4,6.823E3,2.094E3,2.667E3,1.618E3,6.033E3,3.693E3,8.052E3,8.841E3,6.701E3,9.49E3,8.077E3,4.135E3,3.371E3,3.452E3,1.166E3,9.28E2,1.648E3,1.019E3,1.131E3,4.87E2,2.62E3,3.413E3,1.766E3,1.927E3,3.152E3,4.9E3,4.8E3,4.041E3,2.991E3,3.71E3,3.095E3,6.395E3,2.436E3,5.641E3,1.51E3,2.625E3,2.158E3,1.213E3,1.994E3,1.458E3,8.78E2,2.88E2,3.14E2,6.14E2,6.46E2,1.002E3,6.98E2,3.21E2,1.5E2,9.81E2,3.87E2,1E2],"tree_param":{"num_deleted":"0","num_feature":"5","num_nodes":"63","size_leaf_vector":"1"}},{"base_weights":[9.842884E-3,-1.4244139E1,5.2424274E1,-3.208348E1,-7.0402414E-1,3.2994102E1,9.548472E1,-4.3819477E1,-2.4739944E1,-8.483841E0,7.271123E0,2.6114912E1,4.6874783E1,7.8104416E1,1.10886086E2,-4.7732277E1,-3.7873795E1,-2.845384E1,-1.9040813E1,-1.3679842E1,-4.3633466E0,3.4834077E0,1.3648392E1,2.0328207E1,3.1909351E1,4.2092575E1,6.0734188E1,8.515681E1,6.2155346E1,1.03317924E2,1.26256256E2,-5.0635457E0,-4.5116606E0,-3.9718435E0,-3.2483044E0,-3.2919862E0,-2.6163363E0,-2.3059952E0,-1.672532E0,-1.5622902E0,-7.91042E-1,-6.514624E-1,-4.047784E-2,9.732931E-2,7.5522393E-1,9.4572973E-1,1.6989106E0,1.5349711E0,2.2893515E0,2.9695773E0,4.022707E0,4.035906E0,6.0630617E0,7.056138E0,5.665145E0,8.917579E0,7.6752687E0,5.6954017E0,7.386618E0,9.838081E0,1.1413093E1,1.2110404E1,1.3830421E1],"categories":[],"categories_nodes":[],"categories_segments":[],"categories_sizes":[],"default_left":[0,0,0,0,0,0,0,0,0,0,0,0,0,0,0,0,0,0,0,0,0,0,0,0,0,0,0,0,0,0,0,0,0,0,0,0,0,0,0,0,0,0,0,0,0,0,0,0,0,0,0,0,0,0,0,0,0,0,0,0,0,0,0],"id":7,"left_children":[1,3,5,7,9,11,13,15,17,19,21,23,25,27,29,31,33,35,37,39,41,43,45,47,49,51,53,55,57,59,61,-1,-1,-1,-1,-1,-1,-1,-1,-1,-1,-1,-1,-1,-1,-1,-1,-1,-1,-1,-1,-1,-1,-1,-1,-1,-1,-1,-1,-1,-1,-1,-1],"loss_changes":[5.097262E7,1.2956302E7,1.2201388E7,1.993636E6,1.8921296E6,9.58715E5,1.205268E6,2.05408E5,3.0084E5,3.30448E5,3.637068E5,2.24812E5,2.18151E5,2.34738E5,2.66366E5,3.8479E4,3.39115E4,8.73055E4,5.1925E4,7.6409375E4,7.332844E4,9.64975E4,7.840031E4,4.265E4,6.063275E4,7.7218E4,3.01865E4,4.3042E4,3.587325E4,7.4988E4,3.2165E4,0E0,0E0,0E0,0E0,0E0,0E0,0E0,0E0,0E0,0E0,0E0,0E0,0E0,0E0,0E0,0E0,0E0,0E0,0E0,0E0,0E0,0E0,0E0,0E0,0E0,0E0,0E0,0E0,0E0,0E0,0E0,0E0],"parents":[2147483647,0,0,1,1,2,2,3,3,4,4,5,5,6,6,7,7,8,8,9,9,10,10,11,11,12,12,13,13,14,14,15,15,16,16,17,17,18,18,19,19,20,20,21,21,22,22,23,23,24,24,25,25,26,26,27,27,28,28,29,29,30,30],"right_children":[2,4,6,8,10,12,14,16,18,20,22,24,26,28,30,32,34,36,38,40,42,44,46,48,50,52,54,56,58,60,62,-1,-1,-1,-1,-1,-1,-1,-1,-1,-1,-1,-1,-1,-1,-1,-1,-1,-1,-1,-1,-1,-1,-1,-1,-1,-1,-1,-1,-1,-1,-1,-1],"split_conditions":[2.1E2,1.35E2,3.06E2,9.5E1,1.68E2,2.5E2,3.64E2,8.1E1,1.24E2,1.48E2,1.91E2,2.23E2,2.9E2,7E0,4.18E2,7E1,1.1E2,1.04E2,1.2E2,1.57E2,1.67E2,1.85E2,1.92E2,2.01E2,7E0,1.2E1,7E0,6E0,1.2E1,4.08E2,4.51E2,-5.0635457E0,-4.5116606E0,-3.9718435E0,-3.2483044E0,-3.2919862E0,-2.6163363E0,-2.3059952E0,-1.672532E0,-1.5622902E0,-7.91042E-1,-6.514624E-1,-4.047784E-2,9.732931E-2,7.5522393E-1,9.4572973E-1,1.6989106E0,1.5349711E0,2.2893515E0,2.9695773E0,4.022707E0,4.035906E0,6.0630617E0,7.056138E0,5.665145E0,8.917579E0,7.6752687E0,5.6954017E0,7.386618E0,9.838081E0,1.1413093E1,1.2110404E1,1.3830421E1],"split_indices":[2,3,3,2,2,2,2,3,2,2,3,3,2,1,3,2,4,3,3,3,3,2,2,3,1,1,1,1,1,2,2,0,0,0,0,0,0,0,0,0,0,0,0,0,0,0,0,0,0,0,0,0,0,0,0,0,0,0,0,0,0,0,0],"split_type":[0,0,0,0,0,0,0,0,0,0,0,0,0,0,0,0,0,0,0,0,0,0,0,0,0,0,0,0,0,0,0,0,0,0,0,0,0,0,0,0,0,0,0,0,0,0,0,0,0,0,0,0,0,0,0,0,0,0,0,0,0,0,0],"sum_hessian":[6.8224E4,5.3638E4,1.4586E4,2.3144E4,3.0494E4,1.0052E4,4.534E3,8.906E3,1.4238E4,1.5436E4,1.5058E4,6.723E3,3.329E3,2.133E3,2.401E3,5.367E3,3.539E3,8.618E3,5.62E3,6.826E3,8.61E3,9.448E3,5.61E3,3.366E3,3.357E3,2.478E3,8.51E2,1.476E3,6.57E2,1.614E3,7.87E2,2.535E3,2.832E3,2.632E3,9.07E2,2.917E3,5.701E3,2.051E3,3.569E3,5.105E3,1.721E3,5.578E3,3.032E3,5.844E3,3.604E3,2.49E3,3.12E3,1.147E3,2.219E3,2.655E3,7.02E2,2.269E3,2.09E2,2.45E2,6.06E2,9.92E2,4.84E2,4.59E2,1.98E2,1.115E3,4.99E2,5.59E2,2.28E2],"tree_param":{"num_deleted":"0","num_feature":"5","num_nodes":"63","size_leaf_vector":"1"}},{"base_weights":[1.0093535E-2,-1.0825471E1,5.6028137E1,-2.6617182E1,3.3933609E0,3.791877E1,9.121008E1,-3.8429745E1,-1.971339E1,-2.7212934E0,1.3511487E1,3.0839952E1,5.324181E1,8.022915E1,1.0623998E2,-4.2156452E1,-3.168974E1,-2.376031E1,-1.4112424E1,-8.085494E0,9.052627E-1,8.97365E0,1.8774221E1,2.7241247E1,3.7425865E1,4.5884445E1,6.1953003E1,6.980842E1,8.568704E1,9.853122E1,1.1594768E2,-4.502685E0,-3.9428756E0,-3.3605258E0,-2.7685766E0,-2.736419E0,-2.1250036E0,-1.9656023E0,-1.2482877E0,-3.460061E-1,-1.0264829E0,-1.73716E-1,4.4485733E-1,1.0973414E0,4.9657503E-1,1.6525997E0,2.5224414E0,2.307005E0,3.0750072E0,3.5262895E0,4.5310917E0,4.321775E0,5.6801386E0,7.4353595E0,5.6797214E0,7.507342E0,6.4329753E0,7.8009515E0,9.019729E0,1.0281405E1,9.131331E0,1.0473525E1,1.2036107E1],"categories":[],"categories_nodes":[],"categories_segments":[],"categories_sizes":[],"default_left":[0,0,0,0,0,0,0,0,0,0,0,0,0,0,0,0,0,0,0,0,0,0,0,0,0,0,0,0,0,0,0,0,0,0,0,0,0,0,0,0,0,0,0,0,0,0,0,0,0,0,0,0,0,0,0,0,0,0,0,0,0,0,0],"id":8,"left_children":[1,3,5,7,9,11,13,15,17,19,21,23,25,27,29,31,33,35,37,39,41,43,45,47,49,51,53,55,57,59,61,-1,-1,-1,-1,-1,-1,-1,-1,-1,-1,-1,-1,-1,-1,-1,-1,-1,-1,-1,-1,-1,-1,-1,-1,-1,-1,-1,-1,-1,-1,-1,-1],"loss_changes":[4.14123E7,1.2836574E7,7.041844E6,2.208146E6,1.8612372E6,7.90398E5,6.11542E5,2.49593E5,3.87197E5,3.648008E5,2.7045588E5,1.174135E5,1.449525E5,1.17721E5,1.07038E5,4.8568E4,2.638125E4,8.9198E4,6.456125E4,7.621241E4,1.0476947E5,4.8731938E4,7.5657875E4,4.6638E4,2.847025E4,3.405175E4,6.310025E4,1.689125E4,4.2239E4,1.8094E4,2.1786E4,0E0,0E0,0E0,0E0,0E0,0E0,0E0,0E0,0E0,0E0,0E0,0E0,0E0,0E0,0E0,0E0,0E0,0E0,0E0,0E0,0E0,0E0,0E0,0E0,0E0,0E0,0E0,0E0,0E0,0E0,0E0,0E0],"parents":[2147483647,0,0,1,1,2,2,3,3,4,4,5,5,6,6,7,7,8,8,9,9,10,10,11,11,12,12,13,13,14,14,15,15,16,16,17,17,18,18,19,19,20,20,21,21,22,22,23,23,24,24,25,25,26,26,27,27,28,28,29,29,30,30],"right_children":[2,4,6,8,10,12,14,16,18,20,22,24,26,28,30,32,34,36,38,40,42,44,46,48,50,52,54,56,58,60,62,-1,-1,-1,-1,-1,-1,-1,-1,-1,-1,-1,-1,-1,-1,-1,-1,-1,-1,-1,-1,-1,-1,-1,-1,-1,-1,-1,-1,-1,-1,-1,-1],"split_conditions":[2.27E2,1.44E2,3.27E2,9.9E1,1.85E2,2.68E2,3.89E2,8.6E1,1.29E2,1.58E2,2.05E2,2.53E2,2.97E2,3.5E2,4.18E2,7.2E1,1.13E2,1.11E2,1.22E2,6E0,1.75E2,6E0,2.3E2,2.29E2,2.83E2,1.2E1,6E0,6E0,3.5E2,5E0,3.98E2,-4.502685E0,-3.9428756E0,-3.3605258E0,-2.7685766E0,-2.736419E0,-2.1250036E0,-1.9656023E0,-1.2482877E0,-3.460061E-1,-1.0264829E0,-1.73716E-1,4.4485733E-1,1.0973414E0,4.9657503E-1,1.6525997E0,2.5224414E0,2.307005E0,3.0750072E0,3.5262895E0,4.5310917E0,4.321775E0,5.6801386E0,7.4353595E0,5.6797214E0,7.507342E0,6.4329753E0,7.8009515E0,9.019729E0,1.0281405E1,9.131331E0,1.0473525E1,1.2036107E1],"split_indices":[3,3,2,2,2,2,3,3,2,2,2,3,3,2,2,2,4,3,3,1,3,1,2,2,4,1,1,1,3,1,4,0,0,0,0,0,0,0,0,0,0,0,0,0,0,0,0,0,0,0,0,0,0,0,0,0,0,0,0,0,0,0,0],"split_type":[0,0,0,0,0,0,0,0,0,0,0,0,0,0,0,0,0,0,0,0,0,0,0,0,0,0,0,0,0,0,0,0,0,0,0,0,0,0,0,0,0,0,0,0,0,0,0,0,0,0,0,0,0,0,0,0,0,0,0,0,0,0,0],"sum_hessian":[6.8224E4,5.7167E4,1.1057E4,2.7085E4,3.0082E4,7.301E3,3.756E3,9.989E3,1.7096E4,1.8751E4,1.1331E4,4.996E3,2.305E3,2.174E3,1.582E3,6.429E3,3.56E3,9.923E3,7.173E3,7.563E3,1.1188E4,6.086E3,5.245E3,3.234E3,1.762E3,1.253E3,1.052E3,7.52E2,1.422E3,8.88E2,6.94E2,3.125E3,3.304E3,2.403E3,1.157E3,4.07E3,5.853E3,1.627E3,5.546E3,2.423E3,5.14E3,6.409E3,4.779E3,4.059E3,2.027E3,3.892E3,1.353E3,1.481E3,1.753E3,1.387E3,3.75E2,1.011E3,2.42E2,3.05E2,7.47E2,3.77E2,3.75E2,5.33E2,8.89E2,5.49E2,3.39E2,2.03E2,4.91E2],"tree_param":{"num_deleted":"0","num_feature":"5","num_nodes":"63","size_leaf_vector":"1"}},{"base_weights":[1.0422927E-2,-1.12162895E1,4.395577E1,-2.5819263E1,-7.491786E-2,2.900759E1,8.055953E1,-3.6273342E1,-2.0254105E1,-5.331504E0,8.184624E0,2.3749918E1,4.524852E1,7.079275E1,9.528745E1,-3.925473E1,-3.1821997E1,-2.5017E1,-1.6957108E1,-9.610219E0,-1.5851268E0,5.0906262E0,1.3243812E1,1.8987808E1,2.8956526E1,3.8439873E1,5.2002754E1,7.697135E1,6.035557E1,8.95531E1,1.0652488E2,-4.267643E0,-3.77155E0,-3.4017854E0,-2.7108676E0,-2.6000156E0,-1.9159899E0,-2.0199306E0,-1.4134225E0,-5.2299345E-1,-1.1509894E0,-5.8768743E-1,-1.0646735E-2,1.9778946E-1,7.5666636E-1,9.170527E-1,1.5280789E0,1.4346673E0,2.1308212E0,2.819739E0,4.9072795E0,3.569711E0,4.559587E0,4.8087487E0,6.20924E0,7.097467E0,8.327125E0,5.5296593E0,6.893557E0,9.0993595E0,6.705252E0,9.478863E0,1.1075729E1],"categories":[],"categories_nodes":[],"categories_segments":[],"categories_sizes":[],"default_left":[0,0,0,0,0,0,0,0,0,0,0,0,0,0,0,0,0,0,0,0,0,0,0,0,0,0,0,0,0,0,0,0,0,0,0,0,0,0,0,0,0,0,0,0,0,0,0,0,0,0,0,0,0,0,0,0,0,0,0,0,0,0,0],"id":9,"left_children":[1,3,5,7,9,11,13,15,17,19,21,23,25,27,29,31,33,35,37,39,41,43,45,47,49,51,53,55,57,59,61,-1,-1,-1,-1,-1,-1,-1,-1,-1,-1,-1,-1,-1,-1,-1,-1,-1,-1,-1,-1,-1,-1,-1,-1,-1,-1,-1,-1,-1,-1,-1,-1],"loss_changes":[3.3660096E7,8.84145E6,7.593884E6,1.367509E6,1.3384158E6,8.4078E5,5.72228E5,1.07164E5,2.406205E5,3.0195188E5,1.8759781E5,1.84169E5,1.088295E5,1.51671E5,9.3692E4,2.41345E4,3.304575E4,3.5648E4,8.2763E4,7.311569E4,6.3745273E4,5.7334594E4,3.760375E4,4.1630125E4,5.293525E4,2.2003625E4,4.469525E4,5.1476E4,3.5514E4,2.8482E4,1.6126E4,0E0,0E0,0E0,0E0,0E0,0E0,0E0,0E0,0E0,0E0,0E0,0E0,0E0,0E0,0E0,0E0,0E0,0E0,0E0,0E0,0E0,0E0,0E0,0E0,0E0,0E0,0E0,0E0,0E0,0E0,0E0,0E0],"parents":[2147483647,0,0,1,1,2,2,3,3,4,4,5,5,6,6,7,7,8,8,9,9,10,10,11,11,12,12,13,13,14,14,15,15,16,16,17,17,18,18,19,19,20,20,21,21,22,22,23,23,24,24,25,25,26,26,27,27,28,28,29,29,30,30],"right_children":[2,4,6,8,10,12,14,16,18,20,22,24,26,28,30,32,34,36,38,40,42,44,46,48,50,52,54,56,58,60,62,-1,-1,-1,-1,-1,-1,-1,-1,-1,-1,-1,-1,-1,-1,-1,-1,-1,-1,-1,-1,-1,-1,-1,-1,-1,-1,-1,-1,-1,-1,-1,-1],"split_conditions":[2.13E2,1.36E2,3.19E2,9.2E1,1.77E2,2.64E2,3.89E2,8E1,1.12E2,1.55E2,1.99E2,2.3E2,2.78E2,6E0,4.32E2,6.6E1,1E1,1.37E2,1.24E2,6E0,1.54E2,1.8E2,1.9E2,2.06E2,1.2E1,1.1E1,3.27E2,3.5E2,3.8E2,6E0,3.98E2,-4.267643E0,-3.77155E0,-3.4017854E0,-2.7108676E0,-2.6000156E0,-1.9159899E0,-2.0199306E0,-1.4134225E0,-5.2299345E-1,-1.1509894E0,-5.8768743E-1,-1.0646735E-2,1.9778946E-1,7.5666636E-1,9.170527E-1,1.5280789E0,1.4346673E0,2.1308212E0,2.819739E0,4.9072795E0,3.569711E0,4.559587E0,4.8087487E0,6.20924E0,7.097467E0,8.327125E0,5.5296593E0,6.893557E0,9.0993595E0,6.705252E0,9.478863E0,1.1075729E1],"split_indices":[3,2,3,3,2,2,2,4,2,3,2,2,3,1,2,2,1,4,3,1,2,3,3,2,1,1,2,4,4,1,4,0,0,0,0,0,0,0,0,0,0,0,0,0,0,0,0,0,0,0,0,0,0,0,0,0,0,0,0,0,0,0,0],"split_type":[0,0,0,0,0,0,0,0,0,0,0,0,0,0,0,0,0,0,0,0,0,0,0,0,0,0,0,0,0,0,0,0,0,0,0,0,0,0,0,0,0,0,0,0,0,0,0,0,0,0,0,0,0,0,0,0,0,0,0,0,0,0,0],"sum_hessian":[6.8224E4,5.4342E4,1.3882E4,2.3517E4,3.0825E4,9.858E3,4.024E3,8.168E3,1.5349E4,1.8837E4,1.1988E4,7.449E3,2.409E3,2.423E3,1.601E3,4.887E3,3.281E3,6.276E3,9.073E3,8.793E3,1.0044E4,7.44E3,4.548E3,3.893E3,3.556E3,1.203E3,1.206E3,1.518E3,9.05E2,1.066E3,5.35E2,1.508E3,3.379E3,2.234E3,1.047E3,5.371E3,9.05E2,4.22E3,4.853E3,2.661E3,6.132E3,2.573E3,7.471E3,3.297E3,4.143E3,1.518E3,3.03E3,1.3E3,2.593E3,3.429E3,1.27E2,8.74E2,3.29E2,8.73E2,3.33E2,7.84E2,7.34E2,5.74E2,3.31E2,9.99E2,6.7E1,1.48E2,3.87E2],"tree_param":{"num_deleted":"0","num_feature":"5","num_nodes":"63","size_leaf_vector":"1"}},{"base_weights":[1.0461418E-2,-1.0412766E1,3.8378666E1,-2.347584E1,-5.0100154E-1,2.5350958E1,7.251953E1,-3.2471226E1,-1.8335072E1,-6.4851036E0,5.1739526E0,2.049849E1,3.9854725E1,6.473143E1,8.79897E1,-3.4701855E1,-2.7166721E1,-2.2123035E1,-1.5214297E1,-1.1138652E1,-3.4774528E0,2.0019813E0,1.036868E1,1.724195E1,2.7298803E1,3.264629E1,4.5859108E1,5.561688E1,7.181654E1,8.203052E1,9.680345E1,-3.7790914E0,-3.2985437E0,-2.907301E0,-2.202269E0,-2.498214E0,-2.0156052E0,-1.7566931E0,-1.2819712E0,-5.679046E-1,-1.2457564E0,-5.8726545E-2,-5.2882737E-1,4.794614E-1,3.0965228E-3,8.748072E-1,1.364175E0,1.4081553E0,2.1109023E0,2.6051319E0,3.8716362E0,8.334456E0,3.1980362E0,4.320647E0,5.5965233E0,5.914795E0,4.7172894E0,6.8029113E0,7.8232117E0,8.652824E0,7.3457413E0,1.0014015E1,8.524292E0],"categories":[],"categories_nodes":[],"categories_segments":[],"categories_sizes":[],"default_left":[0,0,0,0,0,0,0,0,0,0,0,0,0,0,0,0,0,0,0,0,0,0,0,0,0,0,0,0,0,0,0,0,0,0,0,0,0,0,0,0,0,0,0,0,0,0,0,0,0,0,0,0,0,0,0,0,0,0,0,0,0,0,0],"id":10,"left_children":[1,3,5,7,9,11,13,15,17,19,21,23,25,27,29,31,33,35,37,39,41,43,45,47,49,51,53,55,57,59,61,-1,-1,-1,-1,-1,-1,-1,-1,-1,-1,-1,-1,-1,-1,-1,-1,-1,-1,-1,-1,-1,-1,-1,-1,-1,-1,-1,-1,-1,-1,-1,-1],"loss_changes":[2.7284978E7,6.9466175E6,6.48079E6,1.06975E6,1.0360022E6,7.41753E5,4.7925E5,9.8639E4,1.73804E5,2.0779156E5,2.5798431E5,1.7465575E5,1.12941E5,1.69138E5,6.2702E4,3.0147E4,2.3835625E4,3.690625E4,4.5294125E4,4.1902375E4,4.7209312E4,5.351839E4,3.1367312E4,6.508775E4,3.543975E4,3.8017125E4,3.618575E4,3.230375E4,3.1247E4,2.4838E4,1.21785E4,0E0,0E0,0E0,0E0,0E0,0E0,0E0,0E0,0E0,0E0,0E0,0E0,0E0,0E0,0E0,0E0,0E0,0E0,0E0,0E0,0E0,0E0,0E0,0E0,0E0,0E0,0E0,0E0,0E0,0E0,0E0,0E0],"parents":[2147483647,0,0,1,1,2,2,3,3,4,4,5,5,6,6,7,7,8,8,9,9,10,10,11,11,12,12,13,13,14,14,15,15,16,16,17,17,18,18,19,19,20,20,21,21,22,22,23,23,24,24,25,25,26,26,27,27,28,28,29,29,30,30],"right_children":[2,4,6,8,10,12,14,16,18,20,22,24,26,28,30,32,34,36,38,40,42,44,46,48,50,52,54,56,58,60,62,-1,-1,-1,-1,-1,-1,-1,-1,-1,-1,-1,-1,-1,-1,-1,-1,-1,-1,-1,-1,-1,-1,-1,-1,-1,-1,-1,-1,-1,-1,-1,-1],"split_conditions":[2.1E2,1.35E2,3.19E2,9.3E1,1.67E2,2.61E2,3.98E2,8.7E1,1.16E2,1.47E2,1.9E2,2.41E2,2.83E2,3.5E2,4.32E2,6.8E1,1E1,1.04E2,1.22E2,6E0,5E0,5E0,2.1E2,2.21E2,1.1E1,2E0,3.36E2,7E0,3.8E2,5E0,5E0,-3.7790914E0,-3.2985437E0,-2.907301E0,-2.202269E0,-2.498214E0,-2.0156052E0,-1.7566931E0,-1.2819712E0,-5.679046E-1,-1.2457564E0,-5.8726545E-2,-5.2882737E-1,4.794614E-1,3.0965228E-3,8.748072E-1,1.364175E0,1.4081553E0,2.1109023E0,2.6051319E0,3.8716362E0,8.334456E0,3.1980362E0,4.320647E0,5.5965233E0,5.914795E0,4.7172894E0,6.8029113E0,7.8232117E0,8.652824E0,7.3457413E0,1.0014015E1,8.524292E0],"split_indices":[3,3,3,2,3,2,3,4,2,2,2,3,2,2,3,3,1,3,3,1,1,1,2,2,1,1,2,1,4,1,1,0,0,0,0,0,0,0,0,0,0,0,0,0,0,0,0,0,0,0,0,0,0,0,0,0,0,0,0,0,0,0,0],"split_type":[0,0,0,0,0,0,0,0,0,0,0,0,0,0,0,0,0,0,0,0,0,0,0,0,0,0,0,0,0,0,0,0,0,0,0,0,0,0,0,0,0,0,0,0,0,0,0,0,0,0,0,0,0,0,0,0,0,0,0,0,0,0,0],"sum_hessian":[6.8224E4,5.365E4,1.4574E4,2.3145E4,3.0505E4,1.055E4,4.024E3,8.415E3,1.473E4,1.4848E4,1.5657E4,7.907E3,2.643E3,2.68E3,1.344E3,5.92E3,2.495E3,6.651E3,8.079E3,5.828E3,9.02E3,9.722E3,5.935E3,5.349E3,2.558E3,1.204E3,1.439E3,1.176E3,1.504E3,8.08E2,5.36E2,2.107E3,3.813E3,1.817E3,6.78E2,2.706E3,3.945E3,4.072E3,4.007E3,1.135E3,4.693E3,3.475E3,5.545E3,4.022E3,5.7E3,3.972E3,1.963E3,2.946E3,2.403E3,2.309E3,2.49E2,1.4E1,1.19E3,1.144E3,2.95E2,8.25E2,3.51E2,9.53E2,5.51E2,5.24E2,2.84E2,4.1E2,1.26E2],"tree_param":{"num_deleted":"0","num_feature":"5","num_nodes":"63","size_leaf_vector":"1"}},{"base_weights":[1.0468254E-2,-7.9129043E0,4.097297E1,-1.9509695E1,2.5134535E0,2.775182E1,6.6658325E1,-2.7831675E1,-1.4224776E1,-2.4178622E0,9.154849E0,2.2371216E1,3.8483974E1,5.722964E1,7.6502846E1,-3.1248901E1,-2.347767E1,-1.6644001E1,-9.967296E0,-5.4113054E0,8.8257754E-1,5.197412E0,1.337936E1,1.8762516E1,2.6913618E1,3.593726E1,5.1440807E1,6.0935482E1,4.897663E1,7.0810394E1,8.492581E1,-3.4697037E0,-2.9993098E0,-2.623925E0,-2.1157353E0,-1.8346077E0,-1.2512873E0,-1.1252861E0,-3.8525432E-1,-2.5481293E-1,-7.305618E-1,-8.474549E-2,3.3942676E-1,7.837657E-1,3.0681127E-1,1.1956389E0,1.9662821E0,1.7686348E0,2.6104054E0,2.528302E0,3.580799E0,5.154803E0,3.4435627E0,5.760453E0,4.696569E0,4.926911E0,6.40485E0,4.4570866E0,5.708671E0,6.760134E0,7.8297524E0,7.8873672E0,9.052554E0],"categories":[],"categories_nodes":[],"categories_segments":[],"categories_sizes":[],"default_left":[0,0,0,0,0,0,0,0,0,0,0,0,0,0,0,0,0,0,0,0,0,0,0,0,0,0,0,0,0,0,0,0,0,0,0,0,0,0,0,0,0,0,0,0,0,0,0,0,0,0,0,0,0,0,0,0,0,0,0,0,0,0,0],"id":11,"left_children":[1,3,5,7,9,11,13,15,17,19,21,23,25,27,29,31,33,35,37,39,41,43,45,47,49,51,53,55,57,59,61,-1,-1,-1,-1,-1,-1,-1,-1,-1,-1,-1,-1,-1,-1,-1,-1,-1,-1,-1,-1,-1,-1,-1,-1,-1,-1,-1,-1,-1,-1,-1,-1],"loss_changes":[2.2143508E7,6.912362E6,3.753336E6,1.18995E6,9.859528E5,4.207965E5,3.44351E5,1.556555E5,1.7034725E5,1.7069598E5,2.14392E5,7.9259E4,7.8566E4,5.5829E4,8.197E4,2.4447E4,2.9087E4,7.3988E4,4.713E4,4.912053E4,3.5712594E4,3.722086E4,5.5236E4,2.0988812E4,3.03055E4,4.6046E4,8.272625E3,4.48925E4,1.893E4,2.116E4,1.77695E4,0E0,0E0,0E0,0E0,0E0,0E0,0E0,0E0,0E0,0E0,0E0,0E0,0E0,0E0,0E0,0E0,0E0,0E0,0E0,0E0,0E0,0E0,0E0,0E0,0E0,0E0,0E0,0E0,0E0,0E0,0E0,0E0],"parents":[2147483647,0,0,1,1,2,2,3,3,4,4,5,5,6,6,7,7,8,8,9,9,10,10,11,11,12,12,13,13,14,14,15,15,16,16,17,17,18,18,19,19,20,20,21,21,22,22,23,23,24,24,25,25,26,26,27,27,28,28,29,29,30,30],"right_children":[2,4,6,8,10,12,14,16,18,20,22,24,26,28,30,32,34,36,38,40,42,44,46,48,50,52,54,56,58,60,62,-1,-1,-1,-1,-1,-1,-1,-1,-1,-1,-1,-1,-1,-1,-1,-1,-1,-1,-1,-1,-1,-1,-1,-1,-1,-1,-1,-1,-1,-1,-1,-1],"split_conditions":[2.27E2,1.44E2,3.27E2,1.01E2,1.81E2,2.68E2,3.8E2,8.3E1,1.33E2,1.65E2,1.98E2,2.43E2,3.36E2,6E0,4.18E2,6.5E1,9.5E1,1.1E1,1.67E2,6E0,1.74E2,5E0,2.32E2,9E0,1.1E1,3E0,6E0,2E0,3.8E2,4.18E2,4.18E2,-3.4697037E0,-2.9993098E0,-2.623925E0,-2.1157353E0,-1.8346077E0,-1.2512873E0,-1.1252861E0,-3.8525432E-1,-2.5481293E-1,-7.305618E-1,-8.474549E-2,3.3942676E-1,7.837657E-1,3.0681127E-1,1.1956389E0,1.9662821E0,1.7686348E0,2.6104054E0,2.528302E0,3.580799E0,5.154803E0,3.4435627E0,5.760453E0,4.696569E0,4.926911E0,6.40485E0,4.4570866E0,5.708671E0,6.760134E0,7.8297524E0,7.8873672E0,9.052554E0],"split_indices":[3,2,2,3,3,3,3,2,3,2,2,2,3,1,2,2,4,1,4,1,4,1,2,1,1,1,1,1,4,3,4,0,0,0,0,0,0,0,0,0,0,0,0,0,0,0,0,0,0,0,0,0,0,0,0,0,0,0,0,0,0,0,0],"split_type":[0,0,0,0,0,0,0,0,0,0,0,0,0,0,0,0,0,0,0,0,0,0,0,0,0,0,0,0,0,0,0,0,0,0,0,0,0,0,0,0,0,0,0,0,0,0,0,0,0,0,0,0,0,0,0,0,0,0,0,0,0,0,0],"sum_hessian":[6.8224E4,5.7167E4,1.1057E4,2.7064E4,3.0103E4,7.301E3,3.756E3,1.051E4,1.6554E4,1.7276E4,1.2827E4,4.865E3,2.436E3,1.922E3,1.834E3,5.885E3,4.625E3,1.0554E4,6E3,9.059E3,8.217E3,6.624E3,6.203E3,2.714E3,2.151E3,2.039E3,3.97E2,1.322E3,6E2,1.1E3,7.34E2,1.564E3,4.321E3,2.107E3,2.518E3,7.472E3,3.082E3,4.957E3,1.043E3,3.608E3,5.451E3,4.866E3,3.351E3,2.956E3,3.668E3,5.06E3,1.143E3,2.37E3,3.44E2,1.821E3,3.3E2,1.76E2,1.863E3,1.62E2,2.35E2,2.82E2,1.04E3,3.93E2,2.07E2,7.77E2,3.23E2,3.6E2,3.74E2],"tree_param":{"num_deleted":"0","num_feature":"5","num_nodes":"63","size_leaf_vector":"1"}},{"base_weights":[1.0452423E-2,-8.544362E0,3.0812399E1,-2.0073513E1,-1.1879802E0,1.8881826E1,5.5501884E1,-2.6935858E1,-1.6038387E1,-5.9082813E0,4.1340265E0,1.4605576E1,2.6137249E1,4.265803E1,6.3995262E1,-2.8224371E1,-2.1792713E1,-1.884354E1,-1.3656415E1,-8.801992E0,-2.495161E0,1.6428343E0,8.297453E0,9.773665E0,1.643061E1,2.4479296E1,3.9337433E1,4.7980827E1,3.548121E1,5.8664417E1,7.34185E1,-2.9940383E0,-2.6042602E0,-2.2729502E0,-1.654487E0,-1.9716889E0,-1.380088E0,-1.4725981E0,-8.7071115E-1,-4.3084988E-1,-1.017681E0,-1.8764565E-2,-3.9556774E-1,3.95445E-1,-9.735424E-4,1.0201818E0,5.7042295E-1,1.2256823E0,6.457426E-1,1.565061E0,2.5726213E0,2.2667696E0,3.5270162E0,3.6629694E0,5.8208866E0,4.7120585E0,6.515518E0,3.1429965E0,4.48178E0,6.200786E0,5.228006E0,6.9653373E0,8.356946E0],"categories":[],"categories_nodes":[],"categories_segments":[],"categories_sizes":[],"default_left":[0,0,0,0,0,0,0,0,0,0,0,0,0,0,0,0,0,0,0,0,0,0,0,0,0,0,0,0,0,0,0,0,0,0,0,0,0,0,0,0,0,0,0,0,0,0,0,0,0,0,0,0,0,0,0,0,0,0,0,0,0,0,0],"id":12,"left_children":[1,3,5,7,9,11,13,15,17,19,21,23,25,27,29,31,33,35,37,39,41,43,45,47,49,51,53,55,57,59,61,-1,-1,-1,-1,-1,-1,-1,-1,-1,-1,-1,-1,-1,-1,-1,-1,-1,-1,-1,-1,-1,-1,-1,-1,-1,-1,-1,-1,-1,-1,-1,-1],"loss_changes":[1.7977888E7,4.528642E6,4.367271E6,5.755005E5,8.189342E5,3.098785E5,5.24273E5,5.0413E4,8.72745E4,1.7060594E5,1.589149E5,5.5342375E4,8.016575E4,7.1872E4,1.41672E5,2.22605E4,7.2291875E3,2.620925E4,3.739275E4,5.771175E4,2.671791E4,3.662722E4,2.8268719E4,1.4150484E4,3.271075E4,6.363325E4,1.89205E4,1.3226E4,2.9759E4,3.6483E4,3.4157E4,0E0,0E0,0E0,0E0,0E0,0E0,0E0,0E0,0E0,0E0,0E0,0E0,0E0,0E0,0E0,0E0,0E0,0E0,0E0,0E0,0E0,0E0,0E0,0E0,0E0,0E0,0E0,0E0,0E0,0E0,0E0,0E0],"parents":[2147483647,0,0,1,1,2,2,3,3,4,4,5,5,6,6,7,7,8,8,9,9,10,10,11,11,12,12,13,13,14,14,15,15,16,16,17,17,18,18,19,19,20,20,21,21,22,22,23,23,24,24,25,25,26,26,27,27,28,28,29,29,30,30],"right_children":[2,4,6,8,10,12,14,16,18,20,22,24,26,28,30,32,34,36,38,40,42,44,46,48,50,52,54,56,58,60,62,-1,-1,-1,-1,-1,-1,-1,-1,-1,-1,-1,-1,-1,-1,-1,-1,-1,-1,-1,-1,-1,-1,-1,-1,-1,-1,-1,-1,-1,-1,-1,-1],"split_conditions":[2.09E2,1.29E2,2.97E2,9E1,1.67E2,2.43E2,3.5E2,9E1,1.1E2,1.53E2,1.9E2,2.06E2,1.2E1,7E0,4.08E2,7.4E1,1.18E2,1.35E2,1.49E2,6E0,5E0,5E0,5E0,6E0,1E1,3.04E2,2.83E2,3.98E2,1.2E1,5E0,4.51E2,-2.9940383E0,-2.6042602E0,-2.2729502E0,-1.654487E0,-1.9716889E0,-1.380088E0,-1.4725981E0,-8.7071115E-1,-4.3084988E-1,-1.017681E0,-1.8764565E-2,-3.9556774E-1,3.95445E-1,-9.735424E-4,1.0201818E0,5.7042295E-1,1.2256823E0,6.457426E-1,1.565061E0,2.5726213E0,2.2667696E0,3.5270162E0,3.6629694E0,5.8208866E0,4.7120585E0,6.515518E0,3.1429965E0,4.48178E0,6.200786E0,5.228006E0,6.9653373E0,8.356946E0],"split_indices":[3,2,3,3,3,2,2,4,2,2,2,2,1,1,3,2,4,4,4,1,1,1,1,1,1,4,4,3,1,1,3,0,0,0,0,0,0,0,0,0,0,0,0,0,0,0,0,0,0,0,0,0,0,0,0,0,0,0,0,0,0,0,0],"split_type":[0,0,0,0,0,0,0,0,0,0,0,0,0,0,0,0,0,0,0,0,0,0,0,0,0,0,0,0,0,0,0,0,0,0,0,0,0,0,0,0,0,0,0,0,0,0,0,0,0,0,0,0,0,0,0,0,0,0,0,0,0,0,0],"sum_hessian":[6.8224E4,5.3395E4,1.4829E4,2.0798E4,3.2597E4,9.999E3,4.83E3,7.699E3,1.3099E4,1.7275E4,1.5322E4,6.293E3,3.706E3,1.925E3,2.905E3,6.153E3,1.546E3,6.012E3,7.087E3,9.348E3,7.927E3,9.587E3,5.735E3,1.727E3,4.566E3,3.295E3,4.11E2,1.102E3,8.23E2,1.86E3,1.045E3,3.437E3,2.716E3,1.309E3,2.37E2,5.122E3,8.9E2,5.826E3,1.261E3,2.191E3,7.157E3,3.073E3,4.854E3,3.996E3,5.591E3,3.305E3,2.43E3,9.86E2,7.41E2,4.215E3,3.51E2,2.824E3,4.71E2,3.62E2,4.9E1,1.053E3,4.9E1,5.77E2,2.46E2,1.215E3,6.45E2,7.68E2,2.77E2],"tree_param":{"num_deleted":"0","num_feature":"5","num_nodes":"63","size_leaf_vector":"1"}},{"base_weights":[1.0167063E-2,-8.24771E0,2.5922712E1,-1.825103E1,-1.7531968E0,1.5959119E1,4.996114E1,-2.452862E1,-1.4755582E1,-6.2239065E0,2.4091537E0,1.1785885E1,2.2520773E1,4.1475315E1,6.047928E1,-2.6322227E1,-2.1953348E1,-1.7481028E1,-1.2552178E1,-9.251293E0,-3.9428203E0,-1.9286074E-1,5.04829E0,9.633025E0,1.5602644E1,2.1112968E1,3.589819E1,4.5957253E1,3.1984974E1,5.5768013E1,6.896671E1,-2.8679883E0,-2.504478E0,-2.3315177E0,-1.7560126E0,-1.867498E0,-1.4401654E0,-1.3862847E0,-8.642079E-1,-1.028077E0,-4.3191576E-1,-1.0425557E-1,-5.073882E-1,-1.1294209E-1,3.1981143E-1,2.2677402E-1,6.6011983E-1,1.1917322E0,5.266616E-1,1.4778087E0,2.8437252E0,1.9695097E0,3.1127863E0,3.362468E0,5.2504396E0,4.1779137E0,5.006199E0,2.7856991E0,4.0932784E0,5.7617874E0,4.4908824E0,7.1676025E0,5.7380714E0],"categories":[],"categories_nodes":[],"categories_segments":[],"categories_sizes":[],"default_left":[0,0,0,0,0,0,0,0,0,0,0,0,0,0,0,0,0,0,0,0,0,0,0,0,0,0,0,0,0,0,0,0,0,0,0,0,0,0,0,0,0,0,0,0,0,0,0,0,0,0,0,0,0,0,0,0,0,0,0,0,0,0,0],"id":13,"left_children":[1,3,5,7,9,11,13,15,17,19,21,23,25,27,29,31,33,35,37,39,41,43,45,47,49,51,53,55,57,59,61,-1,-1,-1,-1,-1,-1,-1,-1,-1,-1,-1,-1,-1,-1,-1,-1,-1,-1,-1,-1,-1,-1,-1,-1,-1,-1,-1,-1,-1,-1,-1,-1],"loss_changes":[1.4599178E7,3.361215E6,3.948228E6,4.46551E5,5.8380594E5,3.1896925E5,4.28683E5,3.30625E4,7.83595E4,1.04419625E5,1.1157026E5,5.8420125E4,8.457325E4,1.12397E5,8.2325E4,1.2196E4,1.7515125E4,2.122825E4,3.6979E4,3.2954438E4,2.8297812E4,2.598843E4,3.481353E4,4.541947E4,2.6767125E4,5.763475E4,1.44689375E4,2.9053E4,3.0698875E4,2.5355E4,1.99005E4,0E0,0E0,0E0,0E0,0E0,0E0,0E0,0E0,0E0,0E0,0E0,0E0,0E0,0E0,0E0,0E0,0E0,0E0,0E0,0E0,0E0,0E0,0E0,0E0,0E0,0E0,0E0,0E0,0E0,0E0,0E0,0E0],"parents":[2147483647,0,0,1,1,2,2,3,3,4,4,5,5,6,6,7,7,8,8,9,9,10,10,11,11,12,12,13,13,14,14,15,15,16,16,17,17,18,18,19,19,20,20,21,21,22,22,23,23,24,24,25,25,26,26,27,27,28,28,29,29,30,30],"right_children":[2,4,6,8,10,12,14,16,18,20,22,24,26,28,30,32,34,36,38,40,42,44,46,48,50,52,54,56,58,60,62,-1,-1,-1,-1,-1,-1,-1,-1,-1,-1,-1,-1,-1,-1,-1,-1,-1,-1,-1,-1,-1,-1,-1,-1,-1,-1,-1,-1,-1,-1,-1,-1],"split_conditions":[2.03E2,1.28E2,2.97E2,8.8E1,1.62E2,2.37E2,3.72E2,7.8E1,1.1E2,1.43E2,1.81E2,2.24E2,1.2E1,7E0,4.18E2,6.6E1,1E1,1.1E1,1.1E1,1.2E1,5E0,1.87E2,1.74E2,5E0,1E1,3.04E2,2.83E2,3.5E2,1.2E1,6E0,5E0,-2.8679883E0,-2.504478E0,-2.3315177E0,-1.7560126E0,-1.867498E0,-1.4401654E0,-1.3862847E0,-8.642079E-1,-1.028077E0,-4.3191576E-1,-1.0425557E-1,-5.073882E-1,-1.1294209E-1,3.1981143E-1,2.2677402E-1,6.6011983E-1,1.1917322E0,5.266616E-1,1.4778087E0,2.8437252E0,1.9695097E0,3.1127863E0,3.362468E0,5.2504396E0,4.1779137E0,5.006199E0,2.7856991E0,4.0932784E0,5.7617874E0,4.4908824E0,7.1676025E0,5.7380714E0],"split_indices":[3,2,3,2,2,2,3,4,3,3,2,4,1,1,2,3,1,1,1,1,1,4,4,1,1,4,4,2,1,1,1,0,0,0,0,0,0,0,0,0,0,0,0,0,0,0,0,0,0,0,0,0,0,0,0,0,0,0,0,0,0,0,0],"split_type":[0,0,0,0,0,0,0,0,0,0,0,0,0,0,0,0,0,0,0,0,0,0,0,0,0,0,0,0,0,0,0,0,0,0,0,0,0,0,0,0,0,0,0,0,0,0,0,0,0,0,0,0,0,0,0,0,0,0,0,0,0,0,0],"sum_hessian":[6.8224E4,5.1737E4,1.6487E4,2.0366E4,3.1371E4,1.1657E4,4.83E3,7.282E3,1.3084E4,1.5125E4,1.6246E4,7.127E3,4.53E3,2.676E3,2.154E3,4.287E3,2.995E3,5.846E3,7.238E3,6.498E3,8.627E3,8.181E3,8.065E3,4.559E3,2.568E3,4.101E3,4.29E2,1.815E3,8.61E2,1.39E3,7.64E2,1.499E3,2.788E3,2.283E3,7.12E2,4.209E3,1.637E3,5.419E3,1.819E3,5.375E3,1.123E3,2.421E3,6.206E3,6.411E3,1.77E3,2.891E3,5.174E3,2.992E3,1.567E3,2.415E3,1.53E2,3.595E3,5.06E2,3.8E2,4.9E1,9.05E2,9.1E2,5.92E2,2.69E2,1.184E3,2.06E2,6.15E2,1.49E2],"tree_param":{"num_deleted":"0","num_feature":"5","num_nodes":"63","size_leaf_vector":"1"}},{"base_weights":[9.779914E-3,-5.6344204E0,3.0866167E1,-1.3783159E1,2.5726473E0,2.0970331E1,4.8753162E1,-1.97586E1,-9.526999E0,-7.2328043E-1,7.8908625E0,1.7401237E1,2.9432531E1,4.259887E1,5.71782E1,-2.3539156E1,-1.7202686E1,-1.2004014E1,-6.8478575E0,-2.7433732E0,2.1552503E0,5.423189E0,1.1123261E1,1.564108E1,2.30876E1,2.744446E1,3.8368988E1,3.9819588E1,5.004977E1,5.471088E1,6.91343E1,-2.7416518E0,-2.2873545E0,-1.9226773E0,-1.4834641E0,-1.3244064E0,-8.4952146E-1,-7.918368E-1,-3.2912156E-1,-2.891085E-3,-4.039249E-1,1.9294593E-1,1.60336E0,7.187474E-1,2.5059137E-1,1.0559576E0,2.000136E0,1.4745157E0,2.379782E0,2.2138193E0,5.2985086E0,3.8744495E0,2.6009414E0,4.2286487E0,3.5193462E0,4.3743024E0,3.209538E0,5.4940367E0,4.2437286E0,5.2926326E0,6.7747865E0,4.4569674E0,6.962424E0],"categories":[],"categories_nodes":[],"categories_segments":[],"categories_sizes":[],"default_left":[0,0,0,0,0,0,0,0,0,0,0,0,0,0,0,0,0,0,0,0,0,0,0,0,0,0,0,0,0,0,0,0,0,0,0,0,0,0,0,0,0,0,0,0,0,0,0,0,0,0,0,0,0,0,0,0,0,0,0,0,0,0,0],"id":14,"left_children":[1,3,5,7,9,11,13,15,17,19,21,23,25,27,29,31,33,35,37,39,41,43,45,47,49,51,53,55,57,59,61,-1,-1,-1,-1,-1,-1,-1,-1,-1,-1,-1,-1,-1,-1,-1,-1,-1,-1,-1,-1,-1,-1,-1,-1,-1,-1,-1,-1,-1,-1,-1,-1],"loss_changes":[1.1882214E7,3.8572478E6,1.866399E6,7.35852E5,5.037033E5,2.0468275E5,1.92365E5,1.159155E5,1.12097375E5,1.0317386E5,8.764131E4,4.7491375E4,3.472825E4,4.304725E4,4.29155E4,1.18975E4,3.415825E4,3.809875E4,3.0901625E4,3.6674445E4,2.2897676E4,3.2083234E4,2.3605062E4,2.6351875E4,3.0845188E4,2.5765E4,3.04E3,4.67515E4,1.952225E4,2.705475E4,1.1025E2,0E0,0E0,0E0,0E0,0E0,0E0,0E0,0E0,0E0,0E0,0E0,0E0,0E0,0E0,0E0,0E0,0E0,0E0,0E0,0E0,0E0,0E0,0E0,0E0,0E0,0E0,0E0,0E0,0E0,0E0,0E0,0E0],"parents":[2147483647,0,0,1,1,2,2,3,3,4,4,5,5,6,6,7,7,8,8,9,9,10,10,11,11,12,12,13,13,14,14,15,15,16,16,17,17,18,18,19,19,20,20,21,21,22,22,23,23,24,24,25,25,26,26,27,27,28,28,29,29,30,30],"right_children":[2,4,6,8,10,12,14,16,18,20,22,24,26,28,30,32,34,36,38,40,42,44,46,48,50,52,54,56,58,60,62,-1,-1,-1,-1,-1,-1,-1,-1,-1,-1,-1,-1,-1,-1,-1,-1,-1,-1,-1,-1,-1,-1,-1,-1,-1,-1,-1,-1,-1,-1,-1,-1],"split_conditions":[2.3E2,1.48E2,3.27E2,1.06E2,1.87E2,2.73E2,3.89E2,7.8E1,1.3E2,1.71E2,2.06E2,2.64E2,3.36E2,3.8E2,4.51E2,6E1,1E1,1.1E1,1.58E2,5E0,2.34E2,6E0,1.1E1,1.1E1,1.2E1,3E0,6E0,5E0,6E0,4.51E2,3.98E2,-2.7416518E0,-2.2873545E0,-1.9226773E0,-1.4834641E0,-1.3244064E0,-8.4952146E-1,-7.918368E-1,-3.2912156E-1,-2.891085E-3,-4.039249E-1,1.9294593E-1,1.60336E0,7.187474E-1,2.5059137E-1,1.0559576E0,2.000136E0,1.4745157E0,2.379782E0,2.2138193E0,5.2985086E0,3.8744495E0,2.6009414E0,4.2286487E0,3.5193462E0,4.3743024E0,3.209538E0,5.4940367E0,4.2437286E0,5.2926326E0,6.7747865E0,4.4569674E0,6.962424E0],"split_indices":[3,3,2,3,3,2,3,3,2,2,2,4,3,4,2,2,1,1,4,1,4,1,1,1,1,1,1,1,1,3,3,0,0,0,0,0,0,0,0,0,0,0,0,0,0,0,0,0,0,0,0,0,0,0,0,0,0,0,0,0,0,0,0],"split_type":[0,0,0,0,0,0,0,0,0,0,0,0,0,0,0,0,0,0,0,0,0,0,0,0,0,0,0,0,0,0,0,0,0,0,0,0,0,0,0,0,0,0,0,0,0,0,0,0,0,0,0,0,0,0,0,0,0,0,0,0,0,0,0],"sum_hessian":[6.8224E4,5.7675E4,1.0549E4,2.894E4,2.8735E4,6.793E3,3.756E3,1.2037E4,1.6903E4,1.7741E4,1.0994E4,4.78E3,2.013E3,2.174E3,1.582E3,4.852E3,7.185E3,8.781E3,8.122E3,1.0425E4,7.316E3,6.236E3,4.758E3,3.653E3,1.127E3,1.65E3,3.63E2,1.588E3,5.86E2,1.316E3,2.66E2,7.05E2,4.147E3,3.87E3,3.315E3,6.486E3,2.295E3,6.242E3,1.88E3,3.369E3,7.056E3,7.2E3,1.16E2,3.885E3,2.351E3,4.476E3,2.82E2,3.294E3,3.59E2,1.094E3,3.3E1,1.83E2,1.467E3,1.57E2,2.06E2,1.05E3,5.38E2,3.53E2,2.33E2,1.162E3,1.54E2,7E0,2.59E2],"tree_param":{"num_deleted":"0","num_feature":"5","num_nodes":"63","size_leaf_vector":"1"}},{"base_weights":[9.682385E-3,-5.266721E0,2.6834927E1,-1.2894881E1,1.6364952E0,1.7771954E1,4.304917E1,-1.8466164E1,-9.365267E0,-1.2695545E0,6.4955053E0,1.5341771E1,2.737333E1,3.7427742E1,5.151059E1,-2.0242594E1,-1.4350449E1,-2.9866157E0,-1.0125371E1,-3.7590775E0,8.99733E-1,4.819067E0,1.0607832E1,1.2981393E1,1.9163517E1,2.0491432E1,2.9177864E1,4.0729984E1,3.1818933E1,4.585281E1,5.6487137E1,-2.1614954E0,-1.8067118E0,-1.492981E0,-6.113115E-1,-5.725794E-1,-4.1817784E-2,-1.1791676E0,-6.989077E-1,-8.9406624E-2,-4.7857904E-1,3.1253788E-1,-3.4767095E-2,8.2578224E-1,2.1083815E-1,1.6377575E0,8.960682E-1,1.226189E0,2.0888493E0,6.1606107E0,1.8842633E0,2.9870033E0,1.8921763E0,2.4456294E0,3.1748059E0,3.6174839E0,4.4641128E0,2.7691326E0,3.5715854E0,4.7994285E0,2.9288566E0,6.1552525E0,4.780804E0],"categories":[],"categories_nodes":[],"categories_segments":[],"categories_sizes":[],"default_left":[0,0,0,0,0,0,0,0,0,0,0,0,0,0,0,0,0,0,0,0,0,0,0,0,0,0,0,0,0,0,0,0,0,0,0,0,0,0,0,0,0,0,0,0,0,0,0,0,0,0,0,0,0,0,0,0,0,0,0,0,0,0,0],"id":15,"left_children":[1,3,5,7,9,11,13,15,17,19,21,23,25,27,29,31,33,35,37,39,41,43,45,47,49,51,53,55,57,59,61,-1,-1,-1,-1,-1,-1,-1,-1,-1,-1,-1,-1,-1,-1,-1,-1,-1,-1,-1,-1,-1,-1,-1,-1,-1,-1,-1,-1,-1,-1,-1,-1],"loss_changes":[9.656763E6,3.002207E6,1.6471245E6,5.324195E5,4.2262144E5,1.6746175E5,1.89285E5,7.650025E4,8.0366625E4,1.0114919E5,7.716928E4,5.15665E4,1.7434E4,4.350775E4,4.2516E4,2.150525E4,1.503725E4,1.2429173E4,7.7346375E4,2.5648922E4,2.7788867E4,7.4171484E4,3.0673562E4,1.996325E4,2.8678812E4,3.9248125E3,1.3154875E4,2.544725E4,1.35035625E4,2.5375625E4,3.4338E4,0E0,0E0,0E0,0E0,0E0,0E0,0E0,0E0,0E0,0E0,0E0,0E0,0E0,0E0,0E0,0E0,0E0,0E0,0E0,0E0,0E0,0E0,0E0,0E0,0E0,0E0,0E0,0E0,0E0,0E0,0E0,0E0],"parents":[2147483647,0,0,1,1,2,2,3,3,4,4,5,5,6,6,7,7,8,8,9,9,10,10,11,11,12,12,13,13,14,14,15,15,16,16,17,17,18,18,19,19,20,20,21,21,22,22,23,23,24,24,25,25,26,26,27,27,28,28,29,29,30,30],"right_children":[2,4,6,8,10,12,14,16,18,20,22,24,26,28,30,32,34,36,38,40,42,44,46,48,50,52,54,56,58,60,62,-1,-1,-1,-1,-1,-1,-1,-1,-1,-1,-1,-1,-1,-1,-1,-1,-1,-1,-1,-1,-1,-1,-1,-1,-1,-1,-1,-1,-1,-1,-1,-1],"split_conditions":[2.26E2,1.44E2,3.19E2,1.01E2,1.85E2,2.83E2,3.89E2,9.5E1,6E0,1.62E2,2.15E2,2.5E2,2.5E2,6E0,3.98E2,7.8E1,1.1E1,1.24E2,1.1E1,5E0,4E0,4E0,5E0,1.1E1,2E0,2E0,2.83E2,3.42E2,3.64E2,5E0,5E0,-2.1614954E0,-1.8067118E0,-1.492981E0,-6.113115E-1,-5.725794E-1,-4.1817784E-2,-1.1791676E0,-6.989077E-1,-8.9406624E-2,-4.7857904E-1,3.1253788E-1,-3.4767095E-2,8.2578224E-1,2.1083815E-1,1.6377575E0,8.960682E-1,1.226189E0,2.0888493E0,6.1606107E0,1.8842633E0,2.9870033E0,1.8921763E0,2.4456294E0,3.1748059E0,3.6174839E0,4.4641128E0,2.7691326E0,3.5715854E0,4.7994285E0,2.9288566E0,6.1552525E0,4.780804E0],"split_indices":[2,3,3,2,3,2,2,4,1,2,4,3,4,1,4,2,1,4,1,1,1,1,1,1,1,1,3,4,4,1,1,0,0,0,0,0,0,0,0,0,0,0,0,0,0,0,0,0,0,0,0,0,0,0,0,0,0,0,0,0,0,0,0],"split_type":[0,0,0,0,0,0,0,0,0,0,0,0,0,0,0,0,0,0,0,0,0,0,0,0,0,0,0,0,0,0,0,0,0,0,0,0,0,0,0,0,0,0,0,0,0,0,0,0,0,0,0,0,0,0,0,0,0,0,0,0,0,0,0],"sum_hessian":[6.8224E4,5.7011E4,1.1213E4,2.7083E4,2.9928E4,7.194E3,4.019E3,1.0502E4,1.6581E4,1.8728E4,1.12E4,5.743E3,1.451E3,2.418E3,1.601E3,7.333E3,3.169E3,1.766E3,1.4815E4,8.72E3,1.0008E4,7.958E3,3.242E3,3.553E3,2.19E3,3.04E2,1.147E3,1.518E3,9E2,7.54E2,8.47E2,4.491E3,2.842E3,2.96E3,2.09E2,8.54E2,9.12E2,9.673E3,5.142E3,2.301E3,6.419E3,3.594E3,6.414E3,3.507E3,4.451E3,7.18E2,2.524E3,3.259E3,2.94E2,1.5E1,2.175E3,4.1E1,2.63E2,4.08E2,7.39E2,7.06E2,8.12E2,4.41E2,4.59E2,6.66E2,8.8E1,5.31E2,3.16E2],"tree_param":{"num_deleted":"0","num_feature":"5","num_nodes":"63","size_leaf_vector":"1"}},{"base_weights":[9.442293E-3,-4.842108E0,2.380366E1,-1.2076043E1,9.7730273E-1,1.6206982E1,3.9654327E1,-1.693973E1,-9.026145E0,-1.3518138E0,6.7294846E0,1.2458799E1,2.2490356E1,3.5305332E1,4.7564186E1,-1.8255203E1,-1.2959702E1,-9.900753E0,-4.044414E0,-3.586187E0,7.989282E-1,4.1962776E0,8.6497345E0,1.1339687E1,2.399671E1,3.3869522E1,2.136923E1,3.227778E1,4.0687668E1,5.065233E1,4.016514E1,-2.2081442E0,-1.7630303E0,-1.4801726E0,-9.6269447E-1,-1.1604133E0,-6.624426E-1,-4.583818E-1,7.9815906E-1,-9.3856536E-2,-4.7146103E-1,2.4907795E-1,-1.3698375E-1,6.910881E-1,1.8597203E-1,7.9968524E-1,1.4649707E0,1.6304235E0,8.882686E-1,2.0475795E0,2.6888444E0,4.7337294E0,3.1771688E0,1.8541425E0,2.7449493E0,3.5045006E0,2.5707622E0,4.881435E0,3.6257455E0,4.4609814E0,5.6069713E0,3.4993958E0,5.0802007E0],"categories":[],"categories_nodes":[],"categories_segments":[],"categories_sizes":[],"default_left":[0,0,0,0,0,0,0,0,0,0,0,0,0,0,0,0,0,0,0,0,0,0,0,0,0,0,0,0,0,0,0,0,0,0,0,0,0,0,0,0,0,0,0,0,0,0,0,0,0,0,0,0,0,0,0,0,0,0,0,0,0,0,0],"id":16,"left_children":[1,3,5,7,9,11,13,15,17,19,21,23,25,27,29,31,33,35,37,39,41,43,45,47,49,51,53,55,57,59,61,-1,-1,-1,-1,-1,-1,-1,-1,-1,-1,-1,-1,-1,-1,-1,-1,-1,-1,-1,-1,-1,-1,-1,-1,-1,-1,-1,-1,-1,-1,-1,-1],"loss_changes":[7.87593E6,2.3857045E6,1.390723E6,3.7462175E5,4.2078444E5,1.837255E5,1.2708E5,5.07375E4,6.7625125E4,1.0743597E5,4.3996188E4,6.2946125E4,3.6502625E4,3.810475E4,2.8241E4,1.7101E4,1.472625E4,7.3645875E4,1.5092625E4,3.2755016E4,4.180327E4,2.4755883E4,2.0048969E4,5.4318875E4,3.8478594E3,5.8418438E3,4.5209375E4,2.733425E4,2.944475E4,2.79745E4,1.994925E4,0E0,0E0,0E0,0E0,0E0,0E0,0E0,0E0,0E0,0E0,0E0,0E0,0E0,0E0,0E0,0E0,0E0,0E0,0E0,0E0,0E0,0E0,0E0,0E0,0E0,0E0,0E0,0E0,0E0,0E0,0E0,0E0],"parents":[2147483647,0,0,1,1,2,2,3,3,4,4,5,5,6,6,7,7,8,8,9,9,10,10,11,11,12,12,13,13,14,14,15,15,16,16,17,17,18,18,19,19,20,20,21,21,22,22,23,23,24,24,25,25,26,26,27,27,28,28,29,29,30,30],"right_children":[2,4,6,8,10,12,14,16,18,20,22,24,26,28,30,32,34,36,38,40,42,44,46,48,50,52,54,56,58,60,62,-1,-1,-1,-1,-1,-1,-1,-1,-1,-1,-1,-1,-1,-1,-1,-1,-1,-1,-1,-1,-1,-1,-1,-1,-1,-1,-1,-1,-1,-1,-1,-1],"split_conditions":[2.24E2,1.4E2,3.27E2,9.8E1,1.91E2,2.58E2,3.98E2,9.5E1,1.5E2,1.64E2,2E2,1E1,3E0,3.72E2,5E0,6.2E1,1E1,1.1E1,1.1E1,5E0,6E0,4E0,1.1E1,5E0,1.1E1,2.83E2,3.19E2,5E0,5E0,3.98E2,4.51E2,-2.2081442E0,-1.7630303E0,-1.4801726E0,-9.6269447E-1,-1.1604133E0,-6.624426E-1,-4.583818E-1,7.9815906E-1,-9.3856536E-2,-4.7146103E-1,2.4907795E-1,-1.3698375E-1,6.910881E-1,1.8597203E-1,7.9968524E-1,1.4649707E0,1.6304235E0,8.882686E-1,2.0475795E0,2.6888444E0,4.7337294E0,3.1771688E0,1.8541425E0,2.7449493E0,3.5045006E0,2.5707622E0,4.881435E0,3.6257455E0,4.4609814E0,5.6069713E0,3.4993958E0,5.0802007E0],"split_indices":[4,3,2,3,2,3,3,4,4,3,3,1,1,4,1,2,1,1,1,1,1,1,1,1,1,2,4,1,1,4,4,0,0,0,0,0,0,0,0,0,0,0,0,0,0,0,0,0,0,0,0,0,0,0,0,0,0,0,0,0,0,0,0],"split_type":[0,0,0,0,0,0,0,0,0,0,0,0,0,0,0,0,0,0,0,0,0,0,0,0,0,0,0,0,0,0,0,0,0,0,0,0,0,0,0,0,0,0,0,0,0,0,0,0,0,0,0,0,0,0,0,0,0,0,0,0,0,0,0],"sum_hessian":[6.8224E4,5.667E4,1.1554E4,2.5264E4,3.1406E4,7.812E3,3.742E3,9.735E3,1.5529E4,2.2355E4,9.051E3,4.895E3,2.917E3,2.418E3,1.324E3,7.314E3,2.421E3,1.3209E4,2.32E3,1.0964E4,1.1391E4,3.904E3,5.147E3,4.464E3,4.31E2,2.59E2,2.658E3,1.552E3,8.66E2,9.3E2,3.94E2,1.022E3,6.292E3,1.557E3,8.64E2,8.689E3,4.52E3,2.221E3,9.9E1,3.277E3,7.687E3,6.399E3,4.992E3,1.805E3,2.099E3,4.644E3,5.03E2,1.476E3,2.988E3,1.98E2,2.33E2,3.2E1,2.27E2,1.817E3,8.41E2,1.089E3,4.63E2,3.02E2,5.64E2,4.44E2,4.86E2,2.68E2,1.26E2],"tree_param":{"num_deleted":"0","num_feature":"5","num_nodes":"63","size_leaf_vector":"1"}},{"base_weights":[9.199201E-3,-4.3579884E0,2.1427881E1,-1.0219354E1,1.5429659E0,1.4203672E1,3.5011833E1,-1.4925406E1,-7.2574964E0,-4.832781E-1,6.2959704E0,1.1190556E1,2.0008087E1,3.1050013E1,4.2885693E1,-1.7096567E1,-1.2503957E1,-8.462387E0,-3.7681212E0,-1.9565475E0,1.9328225E0,8.408975E0,4.176461E0,1.0346849E1,2.1265985E1,1.8459435E1,2.9024385E1,3.380893E1,2.5820112E1,4.0666363E1,5.330962E1,-1.4538474E0,-1.7773904E0,-1.4604825E0,-9.983846E-1,-1.0072025E0,-3.4846112E-1,-4.8081446E-1,1.4791219E-1,2.79631E-2,-3.5145086E-1,6.520343E-1,2.9768674E-2,3.3491156E-1,1.012554E0,2.6934204E-1,1.0028875E0,1.4817905E0,8.2775766E-1,2.1954403E0,-6.6074604E-1,2.9255586E0,1.6871413E0,2.6288993E0,3.7065537E0,3.00565E0,3.815797E0,2.3364356E0,2.9693348E0,4.322145E0,2.9456782E0,7.3500924E0,5.1267824E0],"categories":[],"categories_nodes":[],"categories_segments":[],"categories_sizes":[],"default_left":[0,0,0,0,0,0,0,0,0,0,0,0,0,0,0,0,0,0,0,0,0,0,0,0,0,0,0,0,0,0,0,0,0,0,0,0,0,0,0,0,0,0,0,0,0,0,0,0,0,0,0,0,0,0,0,0,0,0,0,0,0,0,0],"id":17,"left_children":[1,3,5,7,9,11,13,15,17,19,21,23,25,27,29,31,33,35,37,39,41,43,45,47,49,51,53,55,57,59,61,-1,-1,-1,-1,-1,-1,-1,-1,-1,-1,-1,-1,-1,-1,-1,-1,-1,-1,-1,-1,-1,-1,-1,-1,-1,-1,-1,-1,-1,-1,-1,-1],"loss_changes":[6.3818185E6,1.9601324E6,1.133433E6,3.9618175E5,2.71985E5,1.3173362E5,1.23791E5,5.7517E4,7.3337625E4,7.048676E4,3.7768188E4,4.2019938E4,3.544725E4,3.7681E4,2.8832E4,9.768625E3,2.7358688E4,1.03894E5,2.446107E4,4.285617E4,5.62647E4,3.6671312E4,3.6565203E4,4.231547E4,7.4942812E3,3.7258625E4,7.2959688E3,2.7347E4,8.123625E3,3.049025E4,5.79625E3,0E0,0E0,0E0,0E0,0E0,0E0,0E0,0E0,0E0,0E0,0E0,0E0,0E0,0E0,0E0,0E0,0E0,0E0,0E0,0E0,0E0,0E0,0E0,0E0,0E0,0E0,0E0,0E0,0E0,0E0,0E0,0E0],"parents":[2147483647,0,0,1,1,2,2,3,3,4,4,5,5,6,6,7,7,8,8,9,9,10,10,11,11,12,12,13,13,14,14,15,15,16,16,17,17,18,18,19,19,20,20,21,21,22,22,23,23,24,24,25,25,26,26,27,27,28,28,29,29,30,30],"right_children":[2,4,6,8,10,12,14,16,18,20,22,24,26,28,30,32,34,36,38,40,42,44,46,48,50,52,54,56,58,60,62,-1,-1,-1,-1,-1,-1,-1,-1,-1,-1,-1,-1,-1,-1,-1,-1,-1,-1,-1,-1,-1,-1,-1,-1,-1,-1,-1,-1,-1,-1,-1,-1],"split_conditions":[2.24E2,1.47E2,3.19E2,1.03E2,1.93E2,2.58E2,3.98E2,8.3E1,1.49E2,1.74E2,4E0,1E1,1.2E1,6E0,4.51E2,6E0,1.1E1,1.1E1,1.77E2,4E0,5E0,1.74E2,1.1E1,5E0,3.06E2,3E0,2.83E2,3.58E2,3.8E2,5E0,4E0,-1.4538474E0,-1.7773904E0,-1.4604825E0,-9.983846E-1,-1.0072025E0,-3.4846112E-1,-4.8081446E-1,1.4791219E-1,2.79631E-2,-3.5145086E-1,6.520343E-1,2.9768674E-2,3.3491156E-1,1.012554E0,2.6934204E-1,1.0028875E0,1.4817905E0,8.2775766E-1,2.1954403E0,-6.6074604E-1,2.9255586E0,1.6871413E0,2.6288993E0,3.7065537E0,3.00565E0,3.815797E0,2.3364356E0,2.9693348E0,4.322145E0,2.9456782E0,7.3500924E0,5.1267824E0],"split_indices":[4,2,3,4,2,2,2,3,4,4,1,1,1,1,4,1,1,1,4,1,1,4,1,1,3,1,4,4,4,1,1,0,0,0,0,0,0,0,0,0,0,0,0,0,0,0,0,0,0,0,0,0,0,0,0,0,0,0,0,0,0,0,0],"split_type":[0,0,0,0,0,0,0,0,0,0,0,0,0,0,0,0,0,0,0,0,0,0,0,0,0,0,0,0,0,0,0,0,0,0,0,0,0,0,0,0,0,0,0,0,0,0,0,0,0,0,0,0,0,0,0,0,0,0,0,0,0,0,0],"sum_hessian":[6.8224E4,5.667E4,1.1554E4,2.843E4,2.824E4,7.544E3,4.01E3,1.098E4,1.745E4,1.98E4,8.44E3,4.968E3,2.576E3,2.671E3,1.339E3,5.786E3,5.194E3,1.297E4,4.48E3,1.23E4,7.5E3,4.225E3,4.215E3,4.586E3,3.82E2,2.201E3,3.75E2,1.745E3,9.26E2,1.108E3,2.31E2,1.216E3,4.57E3,2.83E3,2.364E3,9.8E3,3.17E3,3.739E3,7.41E2,5.051E3,7.249E3,1.97E3,5.53E3,1.071E3,3.154E3,3.364E3,8.51E2,1.449E3,3.137E3,3.73E2,9E0,2.8E2,1.921E3,2.83E2,9.2E1,9.41E2,8.04E2,5.71E2,3.55E2,9E2,2.08E2,1.8E1,2.13E2],"tree_param":{"num_deleted":"0","num_feature":"5","num_nodes":"63","size_leaf_vector":"1"}},{"base_weights":[8.898331E-3,-5.072177E0,1.4995055E1,-1.0957119E1,-1.1502562E0,9.098809E0,2.918332E1,-1.4582177E1,-8.779117E0,-3.7099488E0,1.2415836E0,7.6434355E0,1.5728677E1,2.2923185E1,3.4853317E1,-1.5680622E1,-1.2109148E1,-9.893646E0,-5.103168E0,-4.3916593E0,5.6565124E-1,-4.7036186E-1,2.9280047E0,5.6515436E0,1.0309918E1,1.4671834E1,2.8002213E1,2.6668587E1,2.0095474E1,3.271292E1,4.3270008E1,-1.3277786E0,-1.7139183E0,-1.3948611E0,-9.5121574E-1,-1.1279317E0,-5.958616E-1,-7.2894853E-1,-1.6036534E-1,-1.7933133E-1,-6.542709E-1,-2.9094705E-1,3.5835046E-1,-7.085621E-2,8.878053E-1,4.9187818E-1,1.6192652E-1,7.6239437E-1,3.5204178E-1,9.7037405E-1,2.0794437E0,1.2868105E0,2.2031527E0,2.0746074E0,3.2177243E0,1.9308732E0,2.887818E0,1.9230369E0,2.9262407E0,3.5436966E0,2.819653E0,4.533277E0,3.627E0],"categories":[],"categories_nodes":[],"categories_segments":[],"categories_sizes":[],"default_left":[0,0,0,0,0,0,0,0,0,0,0,0,0,0,0,0,0,0,0,0,0,0,0,0,0,0,0,0,0,0,0,0,0,0,0,0,0,0,0,0,0,0,0,0,0,0,0,0,0,0,0,0,0,0,0,0,0,0,0,0,0,0,0],"id":18,"left_children":[1,3,5,7,9,11,13,15,17,19,21,23,25,27,29,31,33,35,37,39,41,43,45,47,49,51,53,55,57,59,61,-1,-1,-1,-1,-1,-1,-1,-1,-1,-1,-1,-1,-1,-1,-1,-1,-1,-1,-1,-1,-1,-1,-1,-1,-1,-1,-1,-1,-1,-1,-1,-1],"loss_changes":[5.1951225E6,1.1759504E6,1.4449178E6,1.607485E5,1.8720234E5,1.1764506E5,1.79196E5,2.05805E4,5.2107812E4,4.3052906E4,4.5637152E4,5.3108312E4,2.8073875E4,2.502E4,4.64865E4,1.831575E4,1.11220625E4,5.3194375E4,2.2666023E4,7.118872E4,2.1320834E4,1.7475498E4,2.0738906E4,2.406725E4,2.6993344E4,2.6584875E4,4.573422E3,1.62738125E4,1.037325E4,2.5132E4,6.09525E3,0E0,0E0,0E0,0E0,0E0,0E0,0E0,0E0,0E0,0E0,0E0,0E0,0E0,0E0,0E0,0E0,0E0,0E0,0E0,0E0,0E0,0E0,0E0,0E0,0E0,0E0,0E0,0E0,0E0,0E0,0E0,0E0],"parents":[2147483647,0,0,1,1,2,2,3,3,4,4,5,5,6,6,7,7,8,8,9,9,10,10,11,11,12,12,13,13,14,14,15,15,16,16,17,17,18,18,19,19,20,20,21,21,22,22,23,23,24,24,25,25,26,26,27,27,28,28,29,29,30,30],"right_children":[2,4,6,8,10,12,14,16,18,20,22,24,26,28,30,32,34,36,38,40,42,44,46,48,50,52,54,56,58,60,62,-1,-1,-1,-1,-1,-1,-1,-1,-1,-1,-1,-1,-1,-1,-1,-1,-1,-1,-1,-1,-1,-1,-1,-1,-1,-1,-1,-1,-1,-1,-1,-1],"split_conditions":[2E2,1.28E2,2.9E2,9E1,1.61E2,2.58E2,3.58E2,1.1E1,1.1E1,1.2E1,1.77E2,2.24E2,1.1E1,6E0,4.32E2,7E0,7.5E1,1.35E2,1.13E2,7E0,1.25E2,2.17E2,4E0,5E0,1.2E1,3.19E2,2.68E2,2.83E2,3.98E2,5E0,5E0,-1.3277786E0,-1.7139183E0,-1.3948611E0,-9.5121574E-1,-1.1279317E0,-5.958616E-1,-7.2894853E-1,-1.6036534E-1,-1.7933133E-1,-6.542709E-1,-2.9094705E-1,3.5835046E-1,-7.085621E-2,8.878053E-1,4.9187818E-1,1.6192652E-1,7.6239437E-1,3.5204178E-1,9.7037405E-1,2.0794437E0,1.2868105E0,2.2031527E0,2.0746074E0,3.2177243E0,1.9308732E0,2.887818E0,1.9230369E0,2.9262407E0,3.5436966E0,2.819653E0,4.533277E0,3.627E0],"split_indices":[3,3,2,4,3,4,3,1,1,1,2,2,1,1,3,1,4,4,4,1,4,4,1,1,1,4,4,4,4,1,1,0,0,0,0,0,0,0,0,0,0,0,0,0,0,0,0,0,0,0,0,0,0,0,0,0,0,0,0,0,0,0,0],"split_type":[0,0,0,0,0,0,0,0,0,0,0,0,0,0,0,0,0,0,0,0,0,0,0,0,0,0,0,0,0,0,0,0,0,0,0,0,0,0,0,0,0,0,0,0,0,0,0,0,0,0,0,0,0,0,0,0,0,0,0,0,0,0,0],"sum_hessian":[6.8224E4,5.095E4,1.7274E4,2.0375E4,3.0575E4,1.2204E4,5.07E3,7.645E3,1.273E4,1.4769E4,1.5806E4,1.0009E4,2.195E3,2.412E3,2.658E3,5.29E3,2.355E3,9.767E3,2.963E3,1.2738E4,2.031E3,7.844E3,7.962E3,5.731E3,4.278E3,2.023E3,1.72E2,1.034E3,1.378E3,2.123E3,5.35E2,2.002E3,3.288E3,1.376E3,9.79E2,7.222E3,2.545E3,1.823E3,1.14E3,5.77E3,6.968E3,9.44E2,1.087E3,7.65E3,1.94E2,3.157E3,4.805E3,2.975E3,2.756E3,4.046E3,2.32E2,1.627E3,3.96E2,6.5E1,1.07E2,2.41E2,7.93E2,1.262E3,1.16E2,1.32E3,8.03E2,4.09E2,1.26E2],"tree_param":{"num_deleted":"0","num_feature":"5","num_nodes":"63","size_leaf_vector":"1"}},{"base_weights":[8.447559E-3,-3.8116052E0,1.6259777E1,-9.271373E0,1.4195074E-1,1.0830926E1,2.8390171E1,-1.1915876E1,-6.149381E0,3.658628E0,-2.0930698E0,8.060668E0,1.5212854E1,2.458882E1,3.4098206E1,-1.4116366E1,-1.0471194E1,-7.3982825E0,-2.395196E0,1.1941444E0,6.7842503E0,-3.613454E0,3.427307E0,7.3867545E0,1.6363605E1,1.4001118E1,2.4595997E1,2.039097E1,2.64661E1,3.2223717E1,4.449937E1,-1.4980596E0,-1.2117606E0,-1.2234663E0,-7.8373235E-1,-2.5663286E-1,-9.2469496E-1,-5.7518697E-1,-3.8015462E-2,2.7902728E-1,-6.7609206E-2,5.498504E-1,8.950273E-1,-6.204787E-1,-6.2423337E-2,1.2498101E-1,7.741522E-1,1.1218295E0,5.552859E-1,1.4051424E0,2.3828166E0,1.2441044E0,2.0033796E0,1.8329216E0,2.7731185E0,2.313877E0,1.8080546E0,2.5921004E0,4.3543463E0,3.4378483E0,2.3894324E0,6.5738525E0,4.2394967E0],"categories":[],"categories_nodes":[],"categories_segments":[],"categories_sizes":[],"default_left":[0,0,0,0,0,0,0,0,0,0,0,0,0,0,0,0,0,0,0,0,0,0,0,0,0,0,0,0,0,0,0,0,0,0,0,0,0,0,0,0,0,0,0,0,0,0,0,0,0,0,0,0,0,0,0,0,0,0,0,0,0,0,0],"id":19,"left_children":[1,3,5,7,9,11,13,15,17,19,21,23,25,27,29,31,33,35,37,39,41,43,45,47,49,51,53,55,57,59,61,-1,-1,-1,-1,-1,-1,-1,-1,-1,-1,-1,-1,-1,-1,-1,-1,-1,-1,-1,-1,-1,-1,-1,-1,-1,-1,-1,-1,-1,-1,-1,-1],"loss_changes":[4.235534E6,1.1924058E6,8.5480775E5,1.9147688E5,2.5184497E5,1.08789125E5,8.625825E4,3.97805E4,4.9878375E4,9.5902484E4,1.6444147E5,3.0648594E4,3.9154688E4,1.8476E4,2.98E4,8.41225E3,3.5139188E4,7.130372E4,1.7976086E4,2.0787398E4,1.5237406E4,1.1898344E5,3.9737145E4,3.568925E4,6.7760625E3,2.87285E4,7.272125E3,4.3430938E3,1.436125E4,2.360575E4,8.0294062E3,0E0,0E0,0E0,0E0,0E0,0E0,0E0,0E0,0E0,0E0,0E0,0E0,0E0,0E0,0E0,0E0,0E0,0E0,0E0,0E0,0E0,0E0,0E0,0E0,0E0,0E0,0E0,0E0,0E0,0E0,0E0,0E0],"parents":[2147483647,0,0,1,1,2,2,3,3,4,4,5,5,6,6,7,7,8,8,9,9,10,10,11,11,12,12,13,13,14,14,15,15,16,16,17,17,18,18,19,19,20,20,21,21,22,22,23,23,24,24,25,25,26,26,27,27,28,28,29,29,30,30],"right_children":[2,4,6,8,10,12,14,16,18,20,22,24,26,28,30,32,34,36,38,40,42,44,46,48,50,52,54,56,58,60,62,-1,-1,-1,-1,-1,-1,-1,-1,-1,-1,-1,-1,-1,-1,-1,-1,-1,-1,-1,-1,-1,-1,-1,-1,-1,-1,-1,-1,-1,-1,-1,-1],"split_conditions":[2.17E2,1.35E2,3.19E2,1.1E2,5E0,2.5E2,3.89E2,7.9E1,1.2E1,1.76E2,1E1,1E1,1.2E1,3.43E2,4.51E2,1.1E1,1E1,6E0,1.1E2,3E0,1.98E2,1.73E2,1.68E2,5E0,2.61E2,3.19E2,2.46E2,6E0,4.32E2,5E0,4E0,-1.4980596E0,-1.2117606E0,-1.2234663E0,-7.8373235E-1,-2.5663286E-1,-9.2469496E-1,-5.7518697E-1,-3.8015462E-2,2.7902728E-1,-6.7609206E-2,5.498504E-1,8.950273E-1,-6.204787E-1,-6.2423337E-2,1.2498101E-1,7.741522E-1,1.1218295E0,5.552859E-1,1.4051424E0,2.3828166E0,1.2441044E0,2.0033796E0,1.8329216E0,2.7731185E0,2.313877E0,1.8080546E0,2.5921004E0,4.3543463E0,3.4378483E0,2.3894324E0,6.5738525E0,4.2394967E0],"split_indices":[4,4,3,2,1,3,2,4,1,4,1,1,1,3,4,1,1,1,4,1,4,4,4,1,4,4,4,1,3,1,1,0,0,0,0,0,0,0,0,0,0,0,0,0,0,0,0,0,0,0,0,0,0,0,0,0,0,0,0,0,0,0,0],"split_type":[0,0,0,0,0,0,0,0,0,0,0,0,0,0,0,0,0,0,0,0,0,0,0,0,0,0,0,0,0,0,0,0,0,0,0,0,0,0,0,0,0,0,0,0,0,0,0,0,0,0,0,0,0,0,0,0,0,0,0,0,0,0,0],"sum_hessian":[6.8224E4,5.524E4,1.2984E4,2.32E4,3.204E4,8.971E3,4.013E3,1.2559E4,1.0641E4,1.245E4,1.959E4,5.498E3,3.473E3,2.412E3,1.601E3,4.974E3,7.585E3,7.984E3,2.657E3,6.962E3,5.488E3,1.536E4,4.23E3,5.087E3,4.11E2,3.078E3,3.95E2,7.49E2,1.663E3,1.36E3,2.41E2,3.468E3,1.506E3,4.541E3,3.044E3,2.21E3,5.774E3,9.96E2,1.661E3,3.756E3,3.206E3,3.446E3,2.042E3,8.227E3,7.133E3,2.812E3,1.418E3,1.645E3,3.442E3,3.16E2,9.5E1,2.448E3,6.3E2,1.34E2,2.61E2,3.38E2,4.11E2,1.614E3,4.9E1,1.078E3,2.82E2,1.9E1,2.22E2],"tree_param":{"num_deleted":"0","num_feature":"5","num_nodes":"63","size_leaf_vector":"1"}},{"base_weights":[8.136888E-3,-2.8727374E0,1.7562958E1,-7.391104E0,1.5332012E0,1.2350069E1,2.6849699E1,-1.0234472E1,-4.630121E0,-1.3078962E-1,5.268597E0,9.863994E0,1.6462845E1,2.261434E1,3.1415676E1,-1.2107379E1,-8.284229E0,-5.515329E0,-6.9436824E-1,-1.0650915E0,2.2831862E0,4.0452323E0,7.8209333E0,8.689054E0,1.9145214E1,1.575071E1,2.7783075E1,2.4665684E1,1.6231756E1,3.604882E1,2.6359972E1,-1.4269683E0,-1.1416054E0,-9.128195E-1,-5.1084083E-1,-1.4704303E-1,-6.7121524E-1,-2.140839E-1,2.8188464E-1,6.990563E-2,-2.6089773E-1,4.9083263E-1,4.5470443E-2,5.137163E-1,4.7672536E-2,6.858904E-1,1.1854814E0,1.2853745E0,6.233482E-1,1.1034222E0,2.0503795E0,1.8620958E0,1.0155123E0,2.4706562E0,3.5955112E0,1.6381546E0,2.6584523E0,1.3741844E0,2.7264593E0,1.8352959E0,3.6619554E0,2.445327E0,3.3928547E0],"categories":[],"categories_nodes":[],"categories_segments":[],"categories_sizes":[],"default_left":[0,0,0,0,0,0,0,0,0,0,0,0,0,0,0,0,0,0,0,0,0,0,0,0,0,0,0,0,0,0,0,0,0,0,0,0,0,0,0,0,0,0,0,0,0,0,0,0,0,0,0,0,0,0,0,0,0,0,0,0,0,0,0],"id":20,"left_children":[1,3,5,7,9,11,13,15,17,19,21,23,25,27,29,31,33,35,37,39,41,43,45,47,49,51,53,55,57,59,61,-1,-1,-1,-1,-1,-1,-1,-1,-1,-1,-1,-1,-1,-1,-1,-1,-1,-1,-1,-1,-1,-1,-1,-1,-1,-1,-1,-1,-1,-1,-1,-1],"loss_changes":[3.4504092E6,1.1667588E6,4.6528275E5,2.271065E5,1.8444431E5,6.2842062E4,6.6143E4,5.1964125E4,5.1147625E4,4.6305434E4,2.8523094E4,4.1741062E4,1.8265188E4,2.31275E4,3.795675E4,1.070325E4,1.8677844E4,5.8014688E4,1.3711545E4,4.031718E4,2.7497084E4,2.4093883E4,1.1413359E4,3.4823594E4,4.5231406E3,3.4903562E4,2.5309062E3,2.115125E4,1.17125E4,8.054E3,1.068625E4,0E0,0E0,0E0,0E0,0E0,0E0,0E0,0E0,0E0,0E0,0E0,0E0,0E0,0E0,0E0,0E0,0E0,0E0,0E0,0E0,0E0,0E0,0E0,0E0,0E0,0E0,0E0,0E0,0E0,0E0,0E0,0E0],"parents":[2147483647,0,0,1,1,2,2,3,3,4,4,5,5,6,6,7,7,8,8,9,9,10,10,11,11,12,12,13,13,14,14,15,15,16,16,17,17,18,18,19,19,20,20,21,21,22,22,23,23,24,24,25,25,26,26,27,27,28,28,29,29,30,30],"right_children":[2,4,6,8,10,12,14,16,18,20,22,24,26,28,30,32,34,36,38,40,42,44,46,48,50,52,54,56,58,60,62,-1,-1,-1,-1,-1,-1,-1,-1,-1,-1,-1,-1,-1,-1,-1,-1,-1,-1,-1,-1,-1,-1,-1,-1,-1,-1,-1,-1,-1,-1,-1,-1],"split_conditions":[2.36E2,1.48E2,3.36E2,1.13E2,1.96E2,2.77E2,3.8E2,9E1,1.1E1,1.84E2,2.23E2,1.1E1,1.2E1,5E0,5E0,6.6E1,1.2E1,7E0,1.33E2,5E0,6E0,6E0,1E1,5E0,2.43E2,8E0,3.11E2,2E0,9E0,3.58E2,4.51E2,-1.4269683E0,-1.1416054E0,-9.128195E-1,-5.1084083E-1,-1.4704303E-1,-6.7121524E-1,-2.140839E-1,2.8188464E-1,6.990563E-2,-2.6089773E-1,4.9083263E-1,4.5470443E-2,5.137163E-1,4.7672536E-2,6.858904E-1,1.1854814E0,1.2853745E0,6.233482E-1,1.1034222E0,2.0503795E0,1.8620958E0,1.0155123E0,2.4706562E0,3.5955112E0,1.6381546E0,2.6584523E0,1.3741844E0,2.7264593E0,1.8352959E0,3.6619554E0,2.445327E0,3.3928547E0],"split_indices":[4,3,2,4,2,4,4,2,1,4,3,1,1,1,1,3,1,1,4,1,1,1,1,1,4,1,4,1,1,2,4,0,0,0,0,0,0,0,0,0,0,0,0,0,0,0,0,0,0,0,0,0,0,0,0,0,0,0,0,0,0,0,0],"split_type":[0,0,0,0,0,0,0,0,0,0,0,0,0,0,0,0,0,0,0,0,0,0,0,0,0,0,0,0,0,0,0,0,0,0,0,0,0,0,0,0,0,0,0,0,0,0,0,0,0,0,0,0,0,0,0,0,0,0,0,0,0,0,0],"sum_hessian":[6.8224E4,5.8607E4,9.617E3,2.8934E4,2.9673E4,6.161E3,3.456E3,1.4253E4,1.4681E4,2.0529E4,9.144E3,3.842E3,2.319E3,1.796E3,1.66E3,7.268E3,6.985E3,1.1985E4,2.696E3,1.4801E4,5.728E3,6.183E3,2.961E3,3.412E3,4.3E2,2.184E3,1.35E2,1.357E3,4.39E2,8.63E2,7.97E2,1.756E3,5.512E3,5.517E3,1.468E3,2.737E3,9.248E3,1.91E3,7.86E2,6.908E3,7.893E3,2.351E3,3.377E3,4.734E3,1.449E3,2.393E3,5.68E2,1.264E3,2.148E3,6.3E1,3.67E2,1.442E3,7.42E2,1.01E2,3.4E1,2.57E2,1.1E3,3.6E2,7.9E1,2.8E1,8.35E2,6.4E2,1.57E2],"tree_param":{"num_deleted":"0","num_feature":"5","num_nodes":"63","size_leaf_vector":"1"}},{"base_weights":[7.789843E-3,-3.6481314E0,1.1285941E1,-7.8313603E0,-6.1889553E-1,6.722188E0,2.0987036E1,-9.71941E0,-5.204205E0,2.2213244E0,-2.3373327E0,5.9286942E0,1.5321981E1,2.5240356E1,1.4851892E1,-1.1568361E1,-8.562054E0,-6.3422647E0,-1.7997704E0,4.520917E-1,4.266046E0,-3.8030543E0,2.321141E0,9.309197E0,3.471305E0,1.2893378E1,1.8542492E1,2.2052141E1,3.011772E1,1.4000041E1,2.6681917E1,-8.815147E-1,-1.2137948E0,-1.0297245E0,-6.880221E-1,-2.2474268E-1,-7.779905E-1,-4.0322772E-1,-3.981623E-2,1.6651325E-1,-1.2411501E-1,5.423067E-1,1.62155E-1,-5.800125E-1,-1.687871E-1,4.6392433E-2,5.520217E-1,8.045336E-1,1.1991866E0,1.5769608E-1,5.6834185E-1,9.158086E-1,1.4245781E0,2.0672877E0,1.3519837E0,2.4110174E0,1.7311188E0,3.3228643E0,2.5311368E0,1.1457434E0,1.927095E0,2.8217177E0,1.7661879E-2],"categories":[],"categories_nodes":[],"categories_segments":[],"categories_sizes":[],"default_left":[0,0,0,0,0,0,0,0,0,0,0,0,0,0,0,0,0,0,0,0,0,0,0,0,0,0,0,0,0,0,0,0,0,0,0,0,0,0,0,0,0,0,0,0,0,0,0,0,0,0,0,0,0,0,0,0,0,0,0,0,0,0,0],"id":21,"left_children":[1,3,5,7,9,11,13,15,17,19,21,23,25,27,29,31,33,35,37,39,41,43,45,47,49,51,53,55,57,59,61,-1,-1,-1,-1,-1,-1,-1,-1,-1,-1,-1,-1,-1,-1,-1,-1,-1,-1,-1,-1,-1,-1,-1,-1,-1,-1,-1,-1,-1,-1,-1,-1],"loss_changes":[2.8130965E6,6.529067E5,7.39313E5,1.07288E5,1.458661E5,7.742847E4,1.390495E5,2.684225E4,3.505625E4,4.0753824E4,1.2714666E5,8.637934E4,7.2615938E3,4.8380875E4,2.1696E4,7.4893125E3,2.253725E4,3.9913375E4,7.0983213E3,1.2410108E4,1.5981398E4,5.982136E4,2.6478158E4,1.47471875E4,2.523882E4,2.6479297E3,4.107578E3,1.8228312E4,1.7759375E4,2.7185969E4,5.936125E3,0E0,0E0,0E0,0E0,0E0,0E0,0E0,0E0,0E0,0E0,0E0,0E0,0E0,0E0,0E0,0E0,0E0,0E0,0E0,0E0,0E0,0E0,0E0,0E0,0E0,0E0,0E0,0E0,0E0,0E0,0E0,0E0],"parents":[2147483647,0,0,1,1,2,2,3,3,4,4,5,5,6,6,7,7,8,8,9,9,10,10,11,11,12,12,13,13,14,14,15,15,16,16,17,17,18,18,19,19,20,20,21,21,22,22,23,23,24,24,25,25,26,26,27,27,28,28,29,29,30,30],"right_children":[2,4,6,8,10,12,14,16,18,20,22,24,26,28,30,32,34,36,38,40,42,44,46,48,50,52,54,56,58,60,62,-1,-1,-1,-1,-1,-1,-1,-1,-1,-1,-1,-1,-1,-1,-1,-1,-1,-1,-1,-1,-1,-1,-1,-1,-1,-1,-1,-1,-1,-1,-1,-1],"split_conditions":[2.02E2,1.31E2,2.83E2,1.1E2,5E0,1.1E1,6E0,7.8E1,1.2E1,1.69E2,1E1,5E0,2.46E2,3.89E2,1.2E1,6E0,1E1,4E0,1.1E2,3E0,4E0,1.66E2,1.59E2,2.37E2,2.3E2,2.13E2,5E0,4E0,5E0,3.64E2,3.64E2,-8.815147E-1,-1.2137948E0,-1.0297245E0,-6.880221E-1,-2.2474268E-1,-7.779905E-1,-4.0322772E-1,-3.981623E-2,1.6651325E-1,-1.2411501E-1,5.423067E-1,1.62155E-1,-5.800125E-1,-1.687871E-1,4.6392433E-2,5.520217E-1,8.045336E-1,1.1991866E0,1.5769608E-1,5.6834185E-1,9.158086E-1,1.4245781E0,2.0672877E0,1.3519837E0,2.4110174E0,1.7311188E0,3.3228643E0,2.5311368E0,1.1457434E0,1.927095E0,2.8217177E0,1.7661879E-2],"split_indices":[4,4,4,3,1,1,1,3,1,4,1,1,4,4,1,1,1,1,4,1,1,4,4,4,4,4,0,1,1,4,2,0,0,0,0,0,0,0,0,0,0,0,0,0,0,0,0,0,0,0,0,0,0,0,0,0,0,0,0,0,0,0,0],"split_type":[0,0,0,0,0,0,0,0,0,0,0,0,0,0,0,0,0,0,0,0,0,0,0,0,0,0,0,0,0,0,0,0,0,0,0,0,0,0,0,0,0,0,0,0,0,0,0,0,0,0,0,0,0,0,0,0,0,0,0,0,0,0,0],"sum_hessian":[6.8224E4,5.1523E4,1.6701E4,2.1639E4,2.9884E4,1.1359E4,5.342E3,1.2589E4,9.05E3,1.1265E4,1.8619E4,1.0401E4,9.58E2,3.153E3,2.189E3,4.843E3,7.746E3,6.782E3,2.268E3,6.04E3,5.225E3,1.4163E4,4.456E3,4.377E3,6.024E3,5.49E2,4.09E2,1.91E3,1.243E3,2.044E3,1.45E2,8.33E2,4.01E3,3.81E3,3.936E3,1.763E3,5.019E3,8.74E2,1.394E3,3.519E3,2.521E3,3.634E3,1.591E3,7.284E3,6.879E3,2.82E3,1.636E3,2.978E3,1.399E3,3.246E3,2.778E3,1.48E2,4.01E2,2.85E2,1.24E2,1.329E3,5.81E2,7.51E2,4.92E2,1.381E3,6.63E2,1.37E2,8E0],"tree_param":{"num_deleted":"0","num_feature":"5","num_nodes":"63","size_leaf_vector":"1"}},{"base_weights":[7.30022E-3,-3.4334702E0,9.736974E0,-7.4424925E0,-9.6837395E-1,5.817621E0,1.889131E1,-9.131627E0,-5.340966E0,1.657969E0,-2.4646962E0,5.126157E0,1.3726092E1,2.2719494E1,1.3369401E1,-1.1412323E1,-8.417449E0,-6.2302713E0,-2.6924706E0,-2.0119506E-1,3.2370472E0,-3.6414537E0,2.4339066E0,8.18077E0,2.8911998E0,1.1652648E1,1.6696579E1,2.0797276E1,2.9695477E1,1.2601538E1,2.4033173E1,-1.2304115E0,-9.7962713E-1,-9.707913E-1,-6.335195E-1,-2.1752091E-1,-7.255911E-1,-6.0802776E-1,-1.6634248E-1,7.81394E-2,-1.9389118E-1,5.071388E-1,1.9794619E-1,-5.5099696E-1,-1.7156902E-1,6.09074E-2,4.9343944E-1,7.175685E-1,1.0946006E0,1.2863183E-1,5.1152796E-1,-8.868686E-1,1.1806808E0,1.8612813E0,1.2178663E0,2.2054124E0,1.5414275E0,3.79287E0,2.794947E0,1.0312517E0,1.7346758E0,2.5415907E0,1.609124E-2],"categories":[],"categories_nodes":[],"categories_segments":[],"categories_sizes":[],"default_left":[0,0,0,0,0,0,0,0,0,0,0,0,0,0,0,0,0,0,0,0,0,0,0,0,0,0,0,0,0,0,0,0,0,0,0,0,0,0,0,0,0,0,0,0,0,0,0,0,0,0,0,0,0,0,0,0,0,0,0,0,0,0,0],"id":22,"left_children":[1,3,5,7,9,11,13,15,17,19,21,23,25,27,29,31,33,35,37,39,41,43,45,47,49,51,53,55,57,59,61,-1,-1,-1,-1,-1,-1,-1,-1,-1,-1,-1,-1,-1,-1,-1,-1,-1,-1,-1,-1,-1,-1,-1,-1,-1,-1,-1,-1,-1,-1,-1,-1],"loss_changes":[2.2840408E6,4.9809694E5,6.393985E5,6.8074625E4,1.2266273E5,6.818656E4,1.12641375E5,1.7231312E4,2.0130656E4,3.3259938E4,1.14629516E5,7.834947E4,5.9830625E3,4.1675625E4,1.7629562E4,3.5314375E3,2.171725E4,2.6614531E4,7.492206E3,8.887145E3,1.4121656E4,5.7682406E4,1.757356E4,1.34010625E4,2.3662008E4,1.9838594E3,3.3228516E3,1.6411625E4,8.70075E3,2.2033719E4,4.8152188E3,0E0,0E0,0E0,0E0,0E0,0E0,0E0,0E0,0E0,0E0,0E0,0E0,0E0,0E0,0E0,0E0,0E0,0E0,0E0,0E0,0E0,0E0,0E0,0E0,0E0,0E0,0E0,0E0,0E0,0E0,0E0,0E0],"parents":[2147483647,0,0,1,1,2,2,3,3,4,4,5,5,6,6,7,7,8,8,9,9,10,10,11,11,12,12,13,13,14,14,15,15,16,16,17,17,18,18,19,19,20,20,21,21,22,22,23,23,24,24,25,25,26,26,27,27,28,28,29,29,30,30],"right_children":[2,4,6,8,10,12,14,16,18,20,22,24,26,28,30,32,34,36,38,40,42,44,46,48,50,52,54,56,58,60,62,-1,-1,-1,-1,-1,-1,-1,-1,-1,-1,-1,-1,-1,-1,-1,-1,-1,-1,-1,-1,-1,-1,-1,-1,-1,-1,-1,-1,-1,-1,-1,-1],"split_conditions":[1.98E2,1.25E2,2.83E2,1.05E2,5E0,1.1E1,6E0,6.9E1,1.2E1,1.62E2,1.1E1,5E0,2.46E2,4.18E2,1.2E1,1.1E1,1E1,4E0,9.6E1,3E0,3E0,1.61E2,1.49E2,2.39E2,2.3E2,1.61E2,5E0,5E0,4E0,3.64E2,3.64E2,-1.2304115E0,-9.7962713E-1,-9.707913E-1,-6.335195E-1,-2.1752091E-1,-7.255911E-1,-6.0802776E-1,-1.6634248E-1,7.81394E-2,-1.9389118E-1,5.071388E-1,1.9794619E-1,-5.5099696E-1,-1.7156902E-1,6.09074E-2,4.9343944E-1,7.175685E-1,1.0946006E0,1.2863183E-1,5.1152796E-1,-8.868686E-1,1.1806808E0,1.8612813E0,1.2178663E0,2.2054124E0,1.5414275E0,3.79287E0,2.794947E0,1.0312517E0,1.7346758E0,2.5415907E0,1.609124E-2],"split_indices":[4,4,4,2,1,1,1,4,1,4,1,1,4,4,1,1,1,1,4,1,1,4,4,4,4,2,0,1,1,4,2,0,0,0,0,0,0,0,0,0,0,0,0,0,0,0,0,0,0,0,0,0,0,0,0,0,0,0,0,0,0,0,0],"split_type":[0,0,0,0,0,0,0,0,0,0,0,0,0,0,0,0,0,0,0,0,0,0,0,0,0,0,0,0,0,0,0,0,0,0,0,0,0,0,0,0,0,0,0,0,0,0,0,0,0,0,0,0,0,0,0,0,0,0,0,0,0,0,0],"sum_hessian":[6.8224E4,5.0401E4,1.7823E4,1.919E4,3.1211E4,1.2481E4,5.342E3,1.0637E4,8.553E3,1.1328E4,1.9883E4,1.1479E4,1.002E3,3.153E3,2.189E3,2.533E3,8.104E3,6.402E3,2.151E3,5.203E3,6.125E3,1.6032E4,3.851E3,4.849E3,6.63E3,5.93E2,4.09E2,2.475E3,6.78E2,2.044E3,1.45E2,1.628E3,9.05E2,5.001E3,3.103E3,1.293E3,5.109E3,5E2,1.651E3,3.324E3,1.879E3,2.49E3,3.635E3,8.136E3,7.896E3,2.227E3,1.624E3,3.559E3,1.29E3,3.852E3,2.778E3,4E0,5.89E2,2.85E2,1.24E2,2.004E3,4.71E2,1.15E2,5.63E2,1.381E3,6.63E2,1.37E2,8E0],"tree_param":{"num_deleted":"0","num_feature":"5","num_nodes":"63","size_leaf_vector":"1"}},{"base_weights":[6.809493E-3,-3.0902252E0,8.764482E0,-6.021422E0,-3.2493058E-1,5.2363253E0,1.700511E1,-7.8298554E0,-3.9839559E0,2.4307754E0,-1.4800596E0,4.613754E0,1.2356846E1,2.045082E1,1.2034891E1,-8.950024E0,-6.4058113E0,-4.88832E0,-1.0135864E0,1.1176302E0,4.4384913E0,-2.4564824E0,2.658897E0,6.4460616E0,1.4939935E0,1.0487872E1,1.5034439E1,1.774352E1,2.4593262E1,1.1235959E1,2.0385569E1,-9.626631E-1,-7.2787887E-1,-7.8611296E-1,-4.6120176E-1,-1.675578E-1,-6.136838E-1,-3.2990327E-1,8.998724E-3,1.8643443E-1,-4.1288637E-2,5.313309E-1,3.3695787E-1,-8.326145E-2,-4.1130692E-1,1.5006386E-1,5.351604E-1,8.863622E-1,5.060043E-1,-3.4517612E-2,5.0370395E-1,-8.159189E-1,1.0628122E0,2.8420303E0,1.4383091E0,1.9497222E0,1.3705441E0,2.7262678E0,2.047157E0,1.3303106E0,6.061111E-1,1.8115624E0,3.1443822E0],"categories":[],"categories_nodes":[],"categories_segments":[],"categories_sizes":[],"default_left":[0,0,0,0,0,0,0,0,0,0,0,0,0,0,0,0,0,0,0,0,0,0,0,0,0,0,0,0,0,0,0,0,0,0,0,0,0,0,0,0,0,0,0,0,0,0,0,0,0,0,0,0,0,0,0,0,0,0,0,0,0,0,0],"id":23,"left_children":[1,3,5,7,9,11,13,15,17,19,21,23,25,27,29,31,33,35,37,39,41,43,45,47,49,51,53,55,57,59,61,-1,-1,-1,-1,-1,-1,-1,-1,-1,-1,-1,-1,-1,-1,-1,-1,-1,-1,-1,-1,-1,-1,-1,-1,-1,-1,-1,-1,-1,-1,-1,-1],"loss_changes":[1.8504811E6,4.0853766E5,5.1812975E5,9.012044E4,8.256298E4,5.5276062E4,9.125775E4,2.0617688E4,3.0906281E4,2.0192672E4,7.386663E4,6.561419E4,4.861672E3,3.493525E4,1.4381781E4,8.13025E3,1.4869922E4,3.5372203E4,6.777336E3,5.2956333E3,2.8145273E3,3.9777438E4,1.0873639E4,2.4188031E4,2.7689336E4,1.6401797E3,3.165961E3,1.32656875E4,1.3129E4,2.1324406E4,4.1996953E3,0E0,0E0,0E0,0E0,0E0,0E0,0E0,0E0,0E0,0E0,0E0,0E0,0E0,0E0,0E0,0E0,0E0,0E0,0E0,0E0,0E0,0E0,0E0,0E0,0E0,0E0,0E0,0E0,0E0,0E0,0E0,0E0],"parents":[2147483647,0,0,1,1,2,2,3,3,4,4,5,5,6,6,7,7,8,8,9,9,10,10,11,11,12,12,13,13,14,14,15,15,16,16,17,17,18,18,19,19,20,20,21,21,22,22,23,23,24,24,25,25,26,26,27,27,28,28,29,29,30,30],"right_children":[2,4,6,8,10,12,14,16,18,20,22,24,26,28,30,32,34,36,38,40,42,44,46,48,50,52,54,56,58,60,62,-1,-1,-1,-1,-1,-1,-1,-1,-1,-1,-1,-1,-1,-1,-1,-1,-1,-1,-1,-1,-1,-1,-1,-1,-1,-1,-1,-1,-1,-1,-1,-1],"split_conditions":[1.98E2,1.38E2,2.83E2,1.1E2,4E0,1.1E1,6E0,9E1,1.2E1,1.71E2,1E1,6E0,2.46E2,3.89E2,1.1E1,1.1E1,1E1,4E0,1.1E2,3E0,3E0,7E0,1.68E2,4E0,8E0,1.61E2,2.27E2,4E0,5E0,8E0,3.19E2,-9.626631E-1,-7.2787887E-1,-7.8611296E-1,-4.6120176E-1,-1.675578E-1,-6.136838E-1,-3.2990327E-1,8.998724E-3,1.8643443E-1,-4.1288637E-2,5.313309E-1,3.3695787E-1,-8.326145E-2,-4.1130692E-1,1.5006386E-1,5.351604E-1,8.863622E-1,5.060043E-1,-3.4517612E-2,5.0370395E-1,-8.159189E-1,1.0628122E0,2.8420303E0,1.4383091E0,1.9497222E0,1.3705441E0,2.7262678E0,2.047157E0,1.3303106E0,6.061111E-1,1.8115624E0,3.1443822E0],"split_indices":[4,4,4,3,1,1,1,4,1,4,1,1,4,4,1,1,1,1,4,1,1,1,4,1,1,2,2,1,1,1,4,0,0,0,0,0,0,0,0,0,0,0,0,0,0,0,0,0,0,0,0,0,0,0,0,0,0,0,0,0,0,0,0],"split_type":[0,0,0,0,0,0,0,0,0,0,0,0,0,0,0,0,0,0,0,0,0,0,0,0,0,0,0,0,0,0,0,0,0,0,0,0,0,0,0,0,0,0,0,0,0,0,0,0,0,0,0,0,0,0,0,0,0,0,0,0,0,0,0],"sum_hessian":[6.8224E4,5.0401E4,1.7823E4,2.4466E4,2.5935E4,1.2481E4,5.342E3,1.296E4,1.1506E4,7.66E3,1.8275E4,1.1479E4,1.002E3,3.153E3,2.189E3,7.251E3,5.709E3,8.82E3,2.686E3,4.632E3,3.028E3,1.4787E4,3.488E3,7.231E3,4.248E3,5.93E2,4.09E2,1.91E3,1.243E3,2E3,1.89E2,5.158E3,2.093E3,3.15E3,2.559E3,2.469E3,6.351E3,8.74E2,1.812E3,3.113E3,1.519E3,1.663E3,1.365E3,7.468E3,7.319E3,2.44E3,1.048E3,2.633E3,4.598E3,2.797E3,1.451E3,4E0,5.89E2,1.7E1,3.92E2,1.329E3,5.81E2,7.51E2,4.92E2,1.428E3,5.72E2,1.59E2,3E1],"tree_param":{"num_deleted":"0","num_feature":"5","num_nodes":"63","size_leaf_vector":"1"}},{"base_weights":[6.4006844E-3,-2.3699617E0,9.320959E0,-5.143496E0,4.0009028E-1,6.2235756E0,1.6936544E1,-7.4755225E0,-3.728555E0,2.9639804E0,-6.660604E-1,1.3299148E1,5.501803E0,1.9557764E1,1.2106935E1,-8.388009E0,-5.63143E0,-4.8748207E0,-1.1158931E0,1.4360096E0,4.9805913E0,-1.3916973E0,3.1272256E0,9.174879E0,1.4408014E1,4.6136947E0,1.28024235E1,1.8168217E1,2.6024858E1,1.1732951E1,2.8400873E1,-6.010147E-1,-9.28465E-1,-7.6363677E-1,-4.2582533E-1,-1.17455974E-1,-6.192516E-1,-2.3925452E-1,3.4823194E-2,2.209504E-1,2.4091126E-3,4.390001E-1,6.3023597E-1,-2.9306182E-1,2.9144688E-2,1.7419274E-1,4.9299145E-1,1.3037152E0,6.161771E-1,2.245498E0,1.3217134E0,6.768202E-1,3.4713387E-1,1.0164762E0,1.4659237E0,1.9633058E0,1.346927E0,3.4735894E0,2.4820638E0,1.2744823E0,3.750149E-1,3.0436027E0,-1.6326828E0],"categories":[],"categories_nodes":[],"categories_segments":[],"categories_sizes":[],"default_left":[0,0,0,0,0,0,0,0,0,0,0,0,0,0,0,0,0,0,0,0,0,0,0,0,0,0,0,0,0,0,0,0,0,0,0,0,0,0,0,0,0,0,0,0,0,0,0,0,0,0,0,0,0,0,0,0,0,0,0,0,0,0,0],"id":24,"left_children":[1,3,5,7,9,11,13,15,17,19,21,23,25,27,29,31,33,35,37,39,41,43,45,47,49,51,53,55,57,59,61,-1,-1,-1,-1,-1,-1,-1,-1,-1,-1,-1,-1,-1,-1,-1,-1,-1,-1,-1,-1,-1,-1,-1,-1,-1,-1,-1,-1,-1,-1,-1,-1],"loss_changes":[1.5101668E6,4.1762553E5,3.2701838E5,8.959806E4,7.434479E4,5.0281406E4,5.0515E4,1.7210625E4,5.0627734E4,2.4606445E4,5.2880805E4,4.038625E3,5.7963938E4,2.286475E4,8.277109E3,1.4568219E4,9.322641E3,5.7288438E4,9.6401875E3,4.9646836E3,2.6600312E3,4.1770824E4,7.695463E3,2.2006074E3,6.574203E3,1.9616984E4,4.6017188E3,1.44725E4,3.9317812E3,1.1123484E4,3.3187812E3,0E0,0E0,0E0,0E0,0E0,0E0,0E0,0E0,0E0,0E0,0E0,0E0,0E0,0E0,0E0,0E0,0E0,0E0,0E0,0E0,0E0,0E0,0E0,0E0,0E0,0E0,0E0,0E0,0E0,0E0,0E0,0E0],"parents":[2147483647,0,0,1,1,2,2,3,3,4,4,5,5,6,6,7,7,8,8,9,9,10,10,11,11,12,12,13,13,14,14,15,15,16,16,17,17,18,18,19,19,20,20,21,21,22,22,23,23,24,24,25,25,26,26,27,27,28,28,29,29,30,30],"right_children":[2,4,6,8,10,12,14,16,18,20,22,24,26,28,30,32,34,36,38,40,42,44,46,48,50,52,54,56,58,60,62,-1,-1,-1,-1,-1,-1,-1,-1,-1,-1,-1,-1,-1,-1,-1,-1,-1,-1,-1,-1,-1,-1,-1,-1,-1,-1,-1,-1,-1,-1,-1,-1],"split_conditions":[2.13E2,1.44E2,3.19E2,1E2,4E0,3E0,6E0,1.1E1,1.1E1,1.76E2,1E1,2.58E2,1.1E1,4.32E2,1.1E1,6E0,7.5E1,4E0,1.21E2,3E0,1.98E2,1.76E2,1.68E2,2.19E2,2.9E2,5E0,1.2E1,5E0,4E0,8E0,3.72E2,-6.010147E-1,-9.28465E-1,-7.6363677E-1,-4.2582533E-1,-1.17455974E-1,-6.192516E-1,-2.3925452E-1,3.4823194E-2,2.209504E-1,2.4091126E-3,4.390001E-1,6.3023597E-1,-2.9306182E-1,2.9144688E-2,1.7419274E-1,4.9299145E-1,1.3037152E0,6.161771E-1,2.245498E0,1.3217134E0,6.768202E-1,3.4713387E-1,1.0164762E0,1.4659237E0,1.9633058E0,1.346927E0,3.4735894E0,2.4820638E0,1.2744823E0,3.750149E-1,3.0436027E0,-1.6326828E0],"split_indices":[4,4,4,4,1,1,1,1,1,4,1,2,1,4,1,1,4,1,4,1,4,4,4,4,3,1,1,1,1,1,2,0,0,0,0,0,0,0,0,0,0,0,0,0,0,0,0,0,0,0,0,0,0,0,0,0,0,0,0,0,0,0,0],"split_type":[0,0,0,0,0,0,0,0,0,0,0,0,0,0,0,0,0,0,0,0,0,0,0,0,0,0,0,0,0,0,0,0,0,0,0,0,0,0,0,0,0,0,0,0,0,0,0,0,0,0,0,0,0,0,0,0,0,0,0,0,0,0,0],"sum_hessian":[6.8224E4,5.4357E4,1.3867E4,2.7161E4,2.7196E4,9.859E3,4.008E3,1.0255E4,1.6906E4,7.987E3,1.9209E4,9.11E2,8.948E3,2.596E3,1.412E3,6.858E3,3.397E3,1.175E4,5.156E3,4.545E3,3.442E3,1.6125E4,3.084E3,1.95E2,7.16E2,7.979E3,9.69E2,2.14E3,4.56E2,1.382E3,3E1,1.88E3,4.978E3,1.379E3,2.018E3,3.086E3,8.664E3,2.754E3,2.402E3,2.936E3,1.609E3,2.382E3,1.06E3,8.423E3,7.702E3,1.745E3,1.339E3,8.4E1,1.11E2,9E1,6.26E2,2.763E3,5.216E3,4.03E2,5.66E2,1.629E3,5.11E2,5.2E1,4.04E2,1.226E3,1.56E2,2.9E1,1E0],"tree_param":{"num_deleted":"0","num_feature":"5","num_nodes":"63","size_leaf_vector":"1"}},{"base_weights":[6.044913E-3,-1.7198524E0,1.0522929E1,-4.510951E0,9.3100566E-1,7.581354E0,1.6379017E1,-6.594327E0,-3.1838872E0,2.3841548E0,-7.201691E-1,1.1934023E1,6.339956E0,1.9996277E1,1.320753E1,-7.4572425E0,-4.886845E0,-4.1516356E0,-7.9905015E-1,1.1230319E0,4.20747E0,-2.0767488E0,3.848722E0,1.3210561E1,9.665137E0,5.273245E0,1.2840596E1,1.7796034E1,2.30905E1,1.19432955E1,1.9063704E1,-5.2771276E-1,-8.236891E-1,-6.802503E-1,-3.6734968E-1,-9.576756E-2,-5.3655183E-1,-2.8188765E-1,-9.983203E-3,2.7249235E-1,1.8630352E-2,5.6326073E-1,3.1091216E-1,-3.3252695E-1,-1.0671421E-1,2.6259565E-1,7.110153E-1,2.6032827E0,1.2603754E0,9.167677E-1,1.5501634E0,3.8758624E-1,6.489454E-1,1.2346373E0,2.4738894E0,-2.1103008E-1,1.8190154E0,2.1715093E0,2.8640409E0,1.2331836E0,-7.316164E-2,9.516676E-1,2.052138E0],"categories":[],"categories_nodes":[],"categories_segments":[],"categories_sizes":[],"default_left":[0,0,0,0,0,0,0,0,0,0,0,0,0,0,0,0,0,0,0,0,0,0,0,0,0,0,0,0,0,0,0,0,0,0,0,0,0,0,0,0,0,0,0,0,0,0,0,0,0,0,0,0,0,0,0,0,0,0,0,0,0,0,0],"id":25,"left_children":[1,3,5,7,9,11,13,15,17,19,21,23,25,27,29,31,33,35,37,39,41,43,45,47,49,51,53,55,57,59,61,-1,-1,-1,-1,-1,-1,-1,-1,-1,-1,-1,-1,-1,-1,-1,-1,-1,-1,-1,-1,-1,-1,-1,-1,-1,-1,-1,-1,-1,-1,-1,-1],"loss_changes":[1.2383742E6,4.3363344E5,1.6555675E5,7.89105E4,7.2127766E4,3.4527688E4,3.6618688E4,1.63301875E4,4.025147E4,3.6760773E4,8.7227164E4,3.9850781E3,3.4499797E4,9.801125E3,1.2476844E4,1.2495406E4,8.649523E3,4.809797E4,7.112057E3,1.4184069E4,1.0214828E4,1.3674301E4,1.2830551E4,6.7211562E3,1.3531523E3,7.255547E3,3.822625E3,6.95025E3,4.11075E3,6.972578E3,4.0213984E3,0E0,0E0,0E0,0E0,0E0,0E0,0E0,0E0,0E0,0E0,0E0,0E0,0E0,0E0,0E0,0E0,0E0,0E0,0E0,0E0,0E0,0E0,0E0,0E0,0E0,0E0,0E0,0E0,0E0,0E0,0E0,0E0],"parents":[2147483647,0,0,1,1,2,2,3,3,4,4,5,5,6,6,7,7,8,8,9,9,10,10,11,11,12,12,13,13,14,14,15,15,16,16,17,17,18,18,19,19,20,20,21,21,22,22,23,23,24,24,25,25,26,26,27,27,28,28,29,29,30,30],"right_children":[2,4,6,8,10,12,14,16,18,20,22,24,26,28,30,32,34,36,38,40,42,44,46,48,50,52,54,56,58,60,62,-1,-1,-1,-1,-1,-1,-1,-1,-1,-1,-1,-1,-1,-1,-1,-1,-1,-1,-1,-1,-1,-1,-1,-1,-1,-1,-1,-1,-1,-1,-1,-1],"split_conditions":[2.36E2,1.47E2,3.42E2,1.03E2,6E0,4E0,5E0,1.1E1,1.1E1,1.89E2,1E1,3E0,1.1E1,3.98E2,4.32E2,6E0,7.6E1,4E0,1.13E2,3E0,4E0,1.73E2,1.92E2,2.83E2,3.35E2,2.58E2,3.19E2,2E0,4.51E2,4.18E2,3.64E2,-5.2771276E-1,-8.236891E-1,-6.802503E-1,-3.6734968E-1,-9.576756E-2,-5.3655183E-1,-2.8188765E-1,-9.983203E-3,2.7249235E-1,1.8630352E-2,5.6326073E-1,3.1091216E-1,-3.3252695E-1,-1.0671421E-1,2.6259565E-1,7.110153E-1,2.6032827E0,1.2603754E0,9.167677E-1,1.5501634E0,3.8758624E-1,6.489454E-1,1.2346373E0,2.4738894E0,-2.1103008E-1,1.8190154E0,2.1715093E0,2.8640409E0,1.2331836E0,-7.316164E-2,9.516676E-1,2.052138E0],"split_indices":[4,4,4,4,1,1,1,1,1,4,1,1,1,4,4,1,4,1,4,1,1,4,4,2,4,4,4,1,4,2,2,0,0,0,0,0,0,0,0,0,0,0,0,0,0,0,0,0,0,0,0,0,0,0,0,0,0,0,0,0,0,0,0],"split_type":[0,0,0,0,0,0,0,0,0,0,0,0,0,0,0,0,0,0,0,0,0,0,0,0,0,0,0,0,0,0,0,0,0,0,0,0,0,0,0,0,0,0,0,0,0,0,0,0,0,0,0,0,0,0,0,0,0,0,0,0,0,0,0],"sum_hessian":[6.8224E4,5.8607E4,9.617E3,2.8548E4,3.0059E4,6.403E3,3.214E3,1.1107E4,1.7441E4,1.5988E4,1.4071E4,1.419E3,4.984E3,1.499E3,1.715E3,7.376E3,3.731E3,1.2406E4,5.035E3,9.452E3,6.536E3,1.085E4,3.221E3,9.05E2,5.14E2,4.283E3,7.01E2,8.8E2,6.19E2,1.413E3,3.02E2,1.945E3,5.431E3,1.445E3,2.286E3,3.417E3,8.989E3,1.294E3,3.741E3,3.487E3,5.965E3,2.843E3,3.693E3,4.85E3,6E3,2.344E3,8.77E2,3.9E1,8.66E2,4.76E2,3.8E1,1.995E3,2.288E3,6.75E2,2.6E1,1.7E1,8.63E2,5E2,1.19E2,1.371E3,4.2E1,4.1E1,2.61E2],"tree_param":{"num_deleted":"0","num_feature":"5","num_nodes":"63","size_leaf_vector":"1"}},{"base_weights":[5.737229E-3,-1.5478951E0,9.472911E0,-3.8409817E0,1.0812663E0,6.824946E0,1.4744481E1,-6.065943E0,-2.7567515E0,2.7915502E0,-1.12521835E-1,1.0745078E1,5.706909E0,1.8001087E1,1.1889205E1,-6.806985E0,-4.5683346E0,-3.2967365E0,3.3932966E-1,1.1981466E0,3.8103528E0,-9.176007E-1,3.8215613E0,8.938359E0,1.2195178E1,4.5372367E0,1.0625303E1,1.6977034E1,2.3553238E1,1.1097598E1,1.9571184E1,-5.0924146E-1,-7.6373696E-1,-6.1935276E-1,-3.4552413E-1,-7.313403E-2,-4.1135713E-1,-9.717079E-2,1.6384679E-1,2.4264859E-1,1.1492073E-2,4.5997205E-1,2.4064477E-1,2.6767662E-2,-2.3141018E-1,2.538656E-1,6.280492E-1,9.057515E-1,-1.9222596E0,1.3450552E0,8.760792E-1,4.656984E-1,-8.161907E-1,3.958472E0,1.040097E0,-1.9109955E-1,1.7234821E0,2.6180608E0,1.7005198E0,1.1422256E0,1.7793607E-2,1.2618504E0,2.203969E0],"categories":[],"categories_nodes":[],"categories_segments":[],"categories_sizes":[],"default_left":[0,0,0,0,0,0,0,0,0,0,0,0,0,0,0,0,0,0,0,0,0,0,0,0,0,0,0,0,0,0,0,0,0,0,0,0,0,0,0,0,0,0,0,0,0,0,0,0,0,0,0,0,0,0,0,0,0,0,0,0,0,0,0],"id":26,"left_children":[1,3,5,7,9,11,13,15,17,19,21,23,25,27,29,31,33,35,37,39,41,43,45,47,49,51,53,55,57,59,61,-1,-1,-1,-1,-1,-1,-1,-1,-1,-1,-1,-1,-1,-1,-1,-1,-1,-1,-1,-1,-1,-1,-1,-1,-1,-1,-1,-1,-1,-1,-1,-1],"loss_changes":[1.0035026E6,3.5334562E5,1.3415631E5,7.55025E4,5.5747344E4,2.8006469E4,2.9680688E4,1.13509375E4,3.5193297E4,1.821607E4,5.0936004E4,3.6112812E3,2.8630047E4,8.1287188E3,1.0218E4,9.726625E3,6.1255547E3,3.755683E4,5.3275576E3,5.8262803E3,7.5756562E3,2.2098088E4,8.602352E3,2.3082227E3,3.2666406E3,6.1648594E3,5.805492E3,6.2166875E3,3.5289453E3,5.5213125E3,2.4507656E3,0E0,0E0,0E0,0E0,0E0,0E0,0E0,0E0,0E0,0E0,0E0,0E0,0E0,0E0,0E0,0E0,0E0,0E0,0E0,0E0,0E0,0E0,0E0,0E0,0E0,0E0,0E0,0E0,0E0,0E0,0E0,0E0],"parents":[2147483647,0,0,1,1,2,2,3,3,4,4,5,5,6,6,7,7,8,8,9,9,10,10,11,11,12,12,13,13,14,14,15,15,16,16,17,17,18,18,19,19,20,20,21,21,22,22,23,23,24,24,25,25,26,26,27,27,28,28,29,29,30,30],"right_children":[2,4,6,8,10,12,14,16,18,20,22,24,26,28,30,32,34,36,38,40,42,44,46,48,50,52,54,56,58,60,62,-1,-1,-1,-1,-1,-1,-1,-1,-1,-1,-1,-1,-1,-1,-1,-1,-1,-1,-1,-1,-1,-1,-1,-1,-1,-1,-1,-1,-1,-1,-1,-1],"split_conditions":[2.36E2,1.53E2,3.42E2,1E2,5E0,4E0,5E0,1.1E1,1.2E1,1.76E2,1E1,2.83E2,1E1,4.51E2,4.51E2,7E0,7.5E1,4E0,1.25E2,3E0,4E0,7E0,1.9E2,4.18E2,5E0,3.72E2,1.78E2,2E0,5E0,8E0,3.98E2,-5.0924146E-1,-7.6373696E-1,-6.1935276E-1,-3.4552413E-1,-7.313403E-2,-4.1135713E-1,-9.717079E-2,1.6384679E-1,2.4264859E-1,1.1492073E-2,4.5997205E-1,2.4064477E-1,2.6767662E-2,-2.3141018E-1,2.538656E-1,6.280492E-1,9.057515E-1,-1.9222596E0,1.3450552E0,8.760792E-1,4.656984E-1,-8.161907E-1,3.958472E0,1.040097E0,-1.9109955E-1,1.7234821E0,2.6180608E0,1.7005198E0,1.1422256E0,1.7793607E-2,1.2618504E0,2.203969E0],"split_indices":[4,4,4,4,1,1,1,1,1,4,1,4,1,2,4,1,4,1,4,1,1,1,4,2,0,2,2,1,0,1,2,0,0,0,0,0,0,0,0,0,0,0,0,0,0,0,0,0,0,0,0,0,0,0,0,0,0,0,0,0,0,0,0],"split_type":[0,0,0,0,0,0,0,0,0,0,0,0,0,0,0,0,0,0,0,0,0,0,0,0,0,0,0,0,0,0,0,0,0,0,0,0,0,0,0,0,0,0,0,0,0,0,0,0,0,0,0,0,0,0,0,0,0,0,0,0,0,0,0],"sum_hessian":[6.8224E4,5.8607E4,9.617E3,3.1304E4,2.7303E4,6.403E3,3.214E3,1.0255E4,2.1049E4,1.1223E4,1.608E4,1.419E3,4.984E3,1.499E3,1.715E3,6.858E3,3.397E3,1.7923E4,3.126E3,4.378E3,6.845E3,1.3349E4,2.731E3,6.35E2,7.84E2,4.028E3,9.56E2,1.269E3,2.3E2,1.557E3,1.58E2,2.24E3,4.618E3,1.379E3,2.018E3,4.329E3,1.3594E4,1.556E3,1.57E3,2.051E3,2.327E3,4.38E3,2.465E3,7.221E3,6.128E3,1.796E3,9.35E2,6.33E2,2E0,5.72E2,2.12E2,3.991E3,3.7E1,6E0,9.5E2,1.7E1,1.252E3,1.62E2,6.8E1,1.512E3,4.5E1,4.3E1,1.15E2],"tree_param":{"num_deleted":"0","num_feature":"5","num_nodes":"63","size_leaf_vector":"1"}},{"base_weights":[5.3889644E-3,-2.1767113E0,5.5195236E0,-4.561727E0,-7.435217E-1,3.2320805E0,1.1089489E1,-5.453103E0,-2.905148E0,8.4646076E-1,-1.6213119E0,2.8198354E0,8.290029E0,8.469102E0,1.4046609E1,-2.6872976E0,-6.042789E0,-4.989946E0,-1.8828747E0,-4.0257868E-1,1.8329575E0,-2.6269383E0,9.046201E-1,4.206414E0,4.61726E-1,7.0964746E0,1.0670365E1,8.108736E0,1.4321904E1,1.3280259E1,2.0521082E1,-4.6657118E-1,-9.981223E-2,-7.62884E-1,-5.4720455E-1,-6.436276E-1,-4.2435217E-1,-2.5367585E-1,-8.220013E-2,4.213082E-1,-7.270275E-2,2.9082486E-1,1.0686177E-1,-4.0012074E-1,-1.5915011E-1,2.0162992E-2,2.921694E-1,5.559239E-1,3.387842E-1,-7.0083685E-2,2.9644373E-1,7.894401E-1,2.9886016E-1,1.1882638E0,2.97239E-1,7.735707E-1,1.4174514E0,1.783059E0,1.1002848E0,1.2736219E0,2.0962064E0,2.2344856E0,1.6117159E0],"categories":[],"categories_nodes":[],"categories_segments":[],"categories_sizes":[],"default_left":[0,0,0,0,0,0,0,0,0,0,0,0,0,0,0,0,0,0,0,0,0,0,0,0,0,0,0,0,0,0,0,0,0,0,0,0,0,0,0,0,0,0,0,0,0,0,0,0,0,0,0,0,0,0,0,0,0,0,0,0,0,0,0],"id":27,"left_children":[1,3,5,7,9,11,13,15,17,19,21,23,25,27,29,31,33,35,37,39,41,43,45,47,49,51,53,55,57,59,61,-1,-1,-1,-1,-1,-1,-1,-1,-1,-1,-1,-1,-1,-1,-1,-1,-1,-1,-1,-1,-1,-1,-1,-1,-1,-1,-1,-1,-1,-1,-1,-1],"loss_changes":[8.209221E5,1.670841E5,2.4642562E5,2.7077438E4,4.261819E4,2.8571875E4,4.3514562E4,1.9437781E4,1.3675254E4,1.3384604E4,4.997718E4,4.146447E4,2.8590938E3,6.186E3,1.284625E4,7.006627E3,8.857594E3,2.25275E3,2.98771E3,7.182296E3,4.9849277E3,2.0017648E4,7.944369E3,8.824734E3,1.3668277E4,2.2413516E3,3.1655703E3,6.2644062E3,1.8068477E3,9.6251875E3,1.8726875E3,0E0,0E0,0E0,0E0,0E0,0E0,0E0,0E0,0E0,0E0,0E0,0E0,0E0,0E0,0E0,0E0,0E0,0E0,0E0,0E0,0E0,0E0,0E0,0E0,0E0,0E0,0E0,0E0,0E0,0E0,0E0,0E0],"parents":[2147483647,0,0,1,1,2,2,3,3,4,4,5,5,6,6,7,7,8,8,9,9,10,10,11,11,12,12,13,13,14,14,15,15,16,16,17,17,18,18,19,19,20,20,21,21,22,22,23,23,24,24,25,25,26,26,27,27,28,28,29,29,30,30],"right_children":[2,4,6,8,10,12,14,16,18,20,22,24,26,28,30,32,34,36,38,40,42,44,46,48,50,52,54,56,58,60,62,-1,-1,-1,-1,-1,-1,-1,-1,-1,-1,-1,-1,-1,-1,-1,-1,-1,-1,-1,-1,-1,-1,-1,-1,-1,-1,-1,-1,-1,-1,-1,-1],"split_conditions":[1.93E2,1.23E2,2.77E2,1.1E1,5E0,1.1E1,3.58E2,4E0,8.6E1,1.59E2,1E1,6E0,2.48E2,3.98E2,4.51E2,1.01E2,7.8E1,6.6E1,1.11E2,1.39E2,3E0,1.55E2,1.59E2,4E0,8E0,2.9E2,6E0,1.2E1,3E0,4.51E2,5E0,-4.6657118E-1,-9.981223E-2,-7.62884E-1,-5.4720455E-1,